{"learner":{"attributes":{"best_iteration":"0","best_score":"0.995"},"feature_names":[],"feature_types":[],"gradient_booster":{"model":{"gbtree_model_param":{"num_parallel_tree":"1","num_trees":"11"},"iteration_indptr":[0,1,2,3,4,5,6,7,8,9,10,11],"tree_info":[0,0,0,0,0,0,0,0,0,0,0],"trees":[{"base_weights":[1.1515191E-8,-8.2370025E-1,8.910559E-1,-8.964737E-1,5.235094E-1,1.7574891E-1,9.5482713E-1,-9.551128E-1,-3.6614716E-1,7.9862314E-1,-3.9355397E-2,3.2795793E-1,-7.949746E-2,7.705065E-1,9.820437E-2,-9.617647E-1,-2.2385728E-2,-1.8769278E-1,-9.029679E-2,3.3578593E-2,8.930438E-2,1.5578313E-1,8.0352135E-2,8.6272085E-1,1.3392024E-2,-4.4232614E-2,-9.6839145E-2,-2.4353167E-1,1.43757155E-2,5.533246E-1,-8.560201E-2,5.863602E-1,9.5300235E-2,-1.4965142E-2,-5.023588E-2,7.949746E-2,4.241493E-2,8.52803E-2,-1.77846E-2],"categories":[],"categories_nodes":[],"categories_segments":[],"categories_sizes":[],"default_left":[0,0,0,0,0,0,0,0,0,0,0,0,0,0,0,0,0,0,0,0,0,0,0,0,0,0,0,0,0,0,0,0,0,0,0,0,0,0,0],"id":0,"left_children":[1,3,5,7,9,11,13,15,17,19,-1,21,-1,23,-1,25,-1,27,-1,-1,-1,29,-1,31,-1,-1,-1,33,-1,35,-1,37,-1,-1,-1,-1,-1,-1,-1],"loss_changes":[6.0859326E2,4.2713196E1,1.8001434E1,1.2374481E1,6.044889E0,5.259053E0,1.0767822E0,1.573822E0,3.8884664E0,4.7811317E-1,0E0,2.327261E0,0E0,2.9173393E0,0E0,8.2522583E-1,0E0,6.467576E-1,0E0,0E0,0E0,9.817819E0,0E0,5.6256866E-1,0E0,0E0,0E0,6.2120175E-1,0E0,2.0237541E-1,0E0,2.9343653E0,0E0,0E0,0E0,0E0,0E0,0E0,0E0],"parents":[2147483647,0,0,1,1,2,2,3,3,4,4,5,5,6,6,7,7,8,8,9,9,11,11,13,13,15,15,17,17,21,21,23,23,27,27,29,29,31,31],"right_children":[2,4,6,8,10,12,14,16,18,20,-1,22,-1,24,-1,26,-1,28,-1,-1,-1,30,-1,32,-1,-1,-1,34,-1,36,-1,38,-1,-1,-1,-1,-1,-1,-1],"split_conditions":[5.1E1,9.4908394E-2,6E1,4.3E1,4.1E1,2.2222222E-1,6.9E1,1.4285715E-1,9.090909E-2,1.4285715E-1,-3.9355397E-2,1.465013E-1,-7.949746E-2,1.8181819E-1,9.820437E-2,4E0,-2.2385728E-2,4.9E1,-9.029679E-2,3.3578593E-2,8.930438E-2,8.3333336E-2,8.0352135E-2,1.2801977E-1,1.3392024E-2,-4.4232614E-2,-9.6839145E-2,4.7E1,1.43757155E-2,5.3E1,-8.560201E-2,8.3333336E-2,9.5300235E-2,-1.4965142E-2,-5.023588E-2,7.949746E-2,4.241493E-2,8.52803E-2,-1.77846E-2],"split_indices":[1,3,1,1,1,2,1,2,2,2,0,3,0,2,0,1,0,1,0,0,0,2,0,3,0,0,0,1,0,1,0,2,0,0,0,0,0,0,0],"split_type":[0,0,0,0,0,0,0,0,0,0,0,0,0,0,0,0,0,0,0,0,0,0,0,0,0,0,0,0,0,0,0,0,0,0,0,0,0,0,0],"sum_hessian":[8.2718805E2,4.2987927E2,3.9730875E2,4.081656E2,2.1713686E1,3.2829025E1,3.6447974E2,3.6680618E2,4.13594E1,1.6802258E1,4.911429E0,2.895158E1,3.8774438E0,5.0665268E1,3.1381445E2,3.6318723E2,3.6189475E0,3.2053535E1,9.305865E0,3.6189475E0,1.318331E1,2.2230679E1,6.720903E0,4.3944363E1,6.720903E0,5.4284215E0,3.5775882E2,2.76591E1,4.3944364E0,1.6285265E1,5.945414E0,1.2666317E1,3.1278048E1,2.1455189E1,6.2039104E0,3.8774438E0,1.2407821E1,9.305865E0,3.3604512E0],"tree_param":{"num_deleted":"0","num_feature":"4","num_nodes":"39","size_leaf_vector":"1"}},{"base_weights":[-5.8458425E-4,-7.478963E-1,7.349289E-1,-8.5585964E-1,4.7378594E-1,4.699614E-1,8.6714506E-2,-8.694586E-1,-1.8944018E-1,6.51139E-1,-8.381354E-2,6.586569E-2,7.9180634E-1,-3.8379076E-1,-8.791107E-1,-7.89179E-2,2.4451429E-1,2.2455701E-1,8.054786E-2,-6.097307E-1,2.558666E-1,5.169223E-1,8.8821495E-1,-8.875903E-2,8.134385E-2,-8.863222E-1,-3.792327E-1,4.430562E-2,3.0311006E-3,5.577548E-1,-7.403459E-2,-6.2127646E-2,-8.807053E-2,4.9723992E-1,-3.834758E-1,6.6043013E-1,-7.740504E-2,5.890336E-1,9.0934E-2,-9.0873204E-2,-7.851412E-2,7.2536185E-2,-8.301502E-2,7.7805385E-2,3.2449123E-2,8.08854E-2,-7.866341E-2,-7.9128444E-2,6.2523924E-2,1.2681563E-2,-6.637221E-2,1.4578673E-2,8.90824E-2,2.041819E-2,7.926201E-2],"categories":[],"categories_nodes":[],"categories_segments":[],"categories_sizes":[],"default_left":[0,0,0,0,0,0,0,0,0,0,0,0,0,0,0,0,0,0,0,0,0,0,0,0,0,0,0,0,0,0,0,0,0,0,0,0,0,0,0,0,0,0,0,0,0,0,0,0,0,0,0,0,0,0,0],"id":1,"left_children":[1,3,5,7,9,11,-1,13,15,17,-1,19,21,23,25,-1,27,29,-1,31,33,35,37,-1,-1,39,41,-1,-1,43,-1,45,-1,47,49,51,-1,53,-1,-1,-1,-1,-1,-1,-1,-1,-1,-1,-1,-1,-1,-1,-1,-1,-1],"loss_changes":[9.1353033E2,1.0913956E2,2.8936493E1,6.702942E0,1.6270145E1,3.6495037E1,0E0,3.1426392E0,4.4698443E0,3.7757626E0,0E0,1.6288347E1,3.6839066E0,1.05180645E1,2.2851562E0,0E0,4.2451894E-1,5.991962E0,0E0,4.0825863E0,1.54366865E1,8.47489E0,1.8708038E-1,0E0,0E0,9.100952E-1,6.6233006E0,0E0,0E0,4.3967485E-1,0E0,7.139484E0,0E0,1.2395102E1,4.0369954E0,4.5210323E0,0E0,6.514864E-1,0E0,0E0,0E0,0E0,0E0,0E0,0E0,0E0,0E0,0E0,0E0,0E0,0E0,0E0,0E0,0E0,0E0],"parents":[2147483647,0,0,1,1,2,2,3,3,4,4,5,5,7,7,8,8,9,9,11,11,12,12,13,13,14,14,16,16,17,17,19,19,20,20,21,21,22,22,25,25,26,26,29,29,31,31,33,33,34,34,35,35,37,37],"right_children":[2,4,6,8,10,12,-1,14,16,18,-1,20,22,24,26,-1,28,30,-1,32,34,36,38,-1,-1,40,42,-1,-1,44,-1,46,-1,48,50,52,-1,54,-1,-1,-1,-1,-1,-1,-1,-1,-1,-1,-1,-1,-1,-1,-1,-1,-1],"split_conditions":[5.4E1,9.4908394E-2,7.1E1,5.2E1,4.8E1,3.0226535E-1,8.6714506E-2,6E0,4.5E1,1.415274E-1,-8.381354E-2,5.9E1,4.7151405E-1,4E0,5.9853293E-2,-7.89179E-2,4.9E1,4E1,8.054786E-2,5.5E1,1.7172413E-2,4.2924935E-1,6.1E1,-8.875903E-2,8.134385E-2,3.8E1,6.1302193E-2,4.430562E-2,3.0311006E-3,2.5E1,-7.403459E-2,3.9E1,-8.807053E-2,4.4E1,6.1E1,6.1E1,-7.740504E-2,5.630981E-1,9.0934E-2,-9.0873204E-2,-7.851412E-2,7.2536185E-2,-8.301502E-2,7.7805385E-2,3.2449123E-2,8.08854E-2,-7.866341E-2,-7.9128444E-2,6.2523924E-2,1.2681563E-2,-6.637221E-2,1.4578673E-2,8.90824E-2,2.041819E-2,7.926201E-2],"split_indices":[0,3,0,0,0,3,0,0,1,3,0,0,3,0,3,0,1,0,0,0,3,3,1,0,0,1,3,0,0,1,0,1,0,1,1,0,0,3,0,0,0,0,0,0,0,0,0,0,0,0,0,0,0,0,0],"split_type":[0,0,0,0,0,0,0,0,0,0,0,0,0,0,0,0,0,0,0,0,0,0,0,0,0,0,0,0,0,0,0,0,0,0,0,0,0,0,0,0,0,0,0,0,0,0,0,0,0,0,0,0,0,0,0],"sum_hessian":[1.6599982E3,8.233868E2,8.3661145E2,7.568053E2,6.658147E1,2.8001083E2,5.566006E2,7.413722E2,1.5433143E1,5.909618E1,7.485288E0,1.2467657E2,1.5533427E2,1.5241142E1,7.2613104E2,6.1353374E0,9.297806E0,1.635294E1,4.2743244E1,2.6881933E1,9.779463E1,4.1985447E1,1.1334882E2,1.0909151E1,4.3319907E0,7.1504236E2,1.1088681E1,4.2708373E0,5.0269685E0,1.2469099E1,3.88384E0,9.305679E0,1.7576254E1,7.11539E1,2.6640734E1,3.8224716E1,3.7607324E0,9.380579E0,1.0396825E2,5.788549E2,1.3618742E2,3.0379934E0,8.050688E0,5.211622E0,7.2574773E0,4.1728153E0,5.1328645E0,5.96133E0,6.5192566E1,9.638245E0,1.700249E1,1.2325453E1,2.5899263E1,3.9384387E0,5.4421406E0],"tree_param":{"num_deleted":"0","num_feature":"4","num_nodes":"55","size_leaf_vector":"1"}},{"base_weights":[-9.274969E-3,-6.596388E-1,7.2807944E-1,-7.5836086E-1,2.8005418E-1,4.3333983E-1,7.7769905E-1,-7.8779763E-1,-3.944935E-1,1.3141969E-1,7.913954E-2,-7.414542E-2,5.177238E-1,6.7826086E-1,8.082739E-2,-8.1053674E-1,-2.8019506E-1,-6.422837E-1,-1.2413528E-1,5.348864E-1,-2.8832075E-1,4.0562117E-1,8.267244E-2,7.717269E-1,-8.633544E-2,-1.10305585E-2,-8.2842046E-1,1.4655827E-1,-8.061563E-2,-8.058091E-2,-3.6315897E-1,1.1498053E-1,-7.756939E-2,3.0151645E-2,8.160655E-2,-5.882166E-1,1.9400197E-1,5.099565E-1,2.068576E-1,8.201558E-2,2.8286585E-1,-7.173124E-2,-8.455031E-2,4.2701717E-2,-4.7516935E-3,7.9316E-3,-7.178699E-2,-7.516111E-3,4.7048938E-2,7.543263E-2,-3.586852E-2,-2.79008E-2,-7.87439E-2,5.968503E-2,-1.7983248E-2,3.1226663E-2,8.0646776E-2,3.451054E-4,4.1895423E-2,-7.271791E-2,7.579203E-2],"categories":[],"categories_nodes":[],"categories_segments":[],"categories_sizes":[],"default_left":[0,0,0,0,0,0,0,0,0,0,0,0,0,0,0,0,0,0,0,0,0,0,0,0,0,0,0,0,0,0,0,0,0,0,0,0,0,0,0,0,0,0,0,0,0,0,0,0,0,0,0,0,0,0,0,0,0,0,0,0,0],"id":2,"left_children":[1,3,5,7,9,11,13,15,17,19,-1,-1,21,23,-1,25,27,29,31,33,35,37,-1,39,-1,-1,41,43,-1,-1,45,47,-1,49,-1,51,53,55,57,-1,59,-1,-1,-1,-1,-1,-1,-1,-1,-1,-1,-1,-1,-1,-1,-1,-1,-1,-1,-1,-1],"loss_changes":[6.637358E2,6.843579E1,9.149628E0,6.820343E0,5.265321E0,9.873598E0,1.1359558E0,6.8707275E0,3.3926363E0,9.626886E0,0E0,0E0,2.7787857E0,2.0332325E1,0E0,7.272583E0,6.379236E0,9.3087006E-1,4.144147E0,4.0727377E0,4.1735325E0,1.3032684E0,0E0,2.827095E0,0E0,0E0,4.8153687E-1,9.045506E-1,0E0,0E0,1.8968706E0,1.3812572E0,0E0,3.4714942E0,0E0,8.6157036E-1,1.8409679E0,2.319395E0,1.0799582E0,0E0,6.8719134E0,0E0,0E0,0E0,0E0,0E0,0E0,0E0,0E0,0E0,0E0,0E0,0E0,0E0,0E0,0E0,0E0,0E0,0E0,0E0,0E0],"parents":[2147483647,0,0,1,1,2,2,3,3,4,4,5,5,6,6,7,7,8,8,9,9,12,12,13,13,15,15,16,16,17,17,18,18,19,19,20,20,21,21,23,23,26,26,27,27,30,30,31,31,33,33,35,35,36,36,37,37,38,38,40,40],"right_children":[2,4,6,8,10,12,14,16,18,20,-1,-1,22,24,-1,26,28,30,32,34,36,38,-1,40,-1,-1,42,44,-1,-1,46,48,-1,50,-1,52,54,56,58,-1,60,-1,-1,-1,-1,-1,-1,-1,-1,-1,-1,-1,-1,-1,-1,-1,-1,-1,-1,-1,-1],"split_conditions":[5.7E1,1.4285715E-1,6.3E1,4.9E1,6.8E1,5.9E1,7.6E1,8.3333336E-2,4.5E1,4.1E1,7.913954E-2,-7.414542E-2,7.4E1,4.2857143E-1,8.082739E-2,6E0,3.5E1,5.4E1,5.3E1,1.8181819E-1,5.4E1,1.1111111E-1,8.267244E-2,2.5E-1,-8.633544E-2,-1.10305585E-2,1.9E1,2.5E1,-8.061563E-2,-8.058091E-2,5.5E1,5.1E1,-7.756939E-2,1.9E1,8.160655E-2,1.6666667E-1,5.5E1,5.4E1,6.8E1,8.201558E-2,7E1,-7.173124E-2,-8.455031E-2,4.2701717E-2,-4.7516935E-3,7.9316E-3,-7.178699E-2,-7.516111E-3,4.7048938E-2,7.543263E-2,-3.586852E-2,-2.79008E-2,-7.87439E-2,5.968503E-2,-1.7983248E-2,3.1226663E-2,8.0646776E-2,3.451054E-4,4.1895423E-2,-7.271791E-2,7.579203E-2],"split_indices":[0,2,1,0,1,0,1,2,1,1,0,0,0,2,0,0,0,0,0,2,0,2,0,2,0,0,1,1,0,0,0,0,0,0,0,2,0,1,0,0,1,0,0,0,0,0,0,0,0,0,0,0,0,0,0,0,0,0,0,0,0],"split_type":[0,0,0,0,0,0,0,0,0,0,0,0,0,0,0,0,0,0,0,0,0,0,0,0,0,0,0,0,0,0,0,0,0,0,0,0,0,0,0,0,0,0,0,0,0,0,0,0,0,0,0,0,0,0,0,0,0,0,0,0,0],"sum_hessian":[1.3820829E3,7.3441614E2,6.476668E2,6.6476984E2,6.964628E1,9.472648E1,5.529403E2,6.139374E2,5.0832474E1,5.493501E1,1.4711268E1,5.826282E0,8.890019E1,1.3548572E2,4.174546E2,5.8704285E2,2.6894535E1,2.5805447E1,2.5027025E1,2.7870625E1,2.7064384E1,6.693094E1,2.1969255E1,1.2821182E2,7.2739058E0,1.4798085E1,5.7224475E2,1.52457905E1,1.1648746E1,1.5082458E1,1.0722989E1,1.8910559E1,6.116466E0,1.0367506E1,1.750312E1,1.6552757E1,1.0511628E1,4.286469E1,2.4066248E1,1.1603878E2,1.2173037E1,8.19861E1,4.9025867E2,5.744346E0,9.501444E0,5.1166945E0,5.6062946E0,1.2834624E1,6.0759354E0,3.293568E0,7.073938E0,7.426591E0,9.126165E0,4.7723384E0,5.7392898E0,2.694984E1,1.5914848E1,1.2803555E1,1.1262694E1,3.7241483E0,8.448889E0],"tree_param":{"num_deleted":"0","num_feature":"4","num_nodes":"61","size_leaf_vector":"1"}},{"base_weights":[-1.1582282E-2,-6.303008E-1,6.656569E-1,-6.981404E-1,3.5456696E-1,8.8784754E-2,7.209617E-1,-7.5704277E-1,-2.3278613E-1,5.2445567E-1,-3.3346793E-1,1.918354E-1,-7.0766054E-2,5.760588E-1,7.813345E-2,-2.0263912E-2,-7.7350545E-1,-1.07181616E-1,-7.606412E-2,2.1387424E-1,7.794267E-2,-6.952085E-2,2.006402E-2,-1.1971137E-3,6.9379166E-2,7.284273E-1,2.5749847E-1,-7.795268E-1,1.637182E-2,-2.324747E-1,1.4972179E-1,5.4711396E-1,-7.878285E-2,2.5423878E-1,-7.47529E-2,5.443847E-1,7.920956E-2,-8.049121E-2,4.4856274E-1,-6.8415545E-2,-7.91549E-2,-2.9190077E-2,-1.3155162E-2,2.4538524E-2,2.5474823E-3,7.14025E-2,3.8671326E-2,7.176028E-2,8.862021E-3,7.624981E-2,2.3380483E-2,5.7959534E-2,-7.1854554E-2],"categories":[],"categories_nodes":[],"categories_segments":[],"categories_sizes":[],"default_left":[0,0,0,0,0,0,0,0,0,0,0,0,0,0,0,0,0,0,0,0,0,0,0,0,0,0,0,0,0,0,0,0,0,0,0,0,0,0,0,0,0,0,0,0,0,0,0,0,0,0,0,0,0],"id":3,"left_children":[1,3,5,7,9,11,13,15,17,19,21,23,-1,25,-1,-1,27,29,-1,31,-1,-1,-1,33,-1,35,37,39,-1,41,43,45,-1,47,-1,49,-1,-1,51,-1,-1,-1,-1,-1,-1,-1,-1,-1,-1,-1,-1,-1,-1],"loss_changes":[5.3047925E2,4.444925E1,1.921939E1,1.6798431E1,5.23584E0,4.5691776E0,4.3736877E0,4.8563232E0,4.627322E0,2.613782E0,1.9141276E0,4.711376E0,0E0,7.868763E0,0E0,0E0,3.1358948E0,1.9189373E0,0E0,6.1751256E0,0E0,0E0,0E0,7.074226E0,0E0,8.7799835E-1,1.1575935E1,6.591797E-2,0E0,1.9992375E-1,2.2905815E-1,8.537245E-2,0E0,2.0582633E0,0E0,1.9837017E0,0E0,0E0,7.6759386E0,0E0,0E0,0E0,0E0,0E0,0E0,0E0,0E0,0E0,0E0,0E0,0E0,0E0,0E0],"parents":[2147483647,0,0,1,1,2,2,3,3,4,4,5,5,6,6,7,7,8,8,9,9,10,10,11,11,13,13,16,16,17,17,19,19,23,23,25,25,26,26,27,27,29,29,30,30,31,31,33,33,35,35,38,38],"right_children":[2,4,6,8,10,12,14,16,18,20,22,24,-1,26,-1,-1,28,30,-1,32,-1,-1,-1,34,-1,36,38,40,-1,42,44,46,-1,48,-1,50,-1,-1,52,-1,-1,-1,-1,-1,-1,-1,-1,-1,-1,-1,-1,-1,-1],"split_conditions":[5.1E1,9.348035E-2,6E1,4.3E1,4.1E1,2.2222222E-1,3.1472737E-1,6E0,8.3333336E-2,1.6666667E-1,2.4666314E-1,1.465013E-1,-7.0766054E-2,1.7172413E-2,7.813345E-2,-2.0263912E-2,1.8181819E-1,4.8E1,-7.606412E-2,3E1,7.794267E-2,-6.952085E-2,2.006402E-2,8.3333336E-2,6.9379166E-2,7E1,1.0589848E-1,1.8E1,1.637182E-2,4.6E1,5E1,1.1483741E-1,-7.878285E-2,5.3E1,-7.47529E-2,6.7E1,7.920956E-2,-8.049121E-2,3.75E-1,-6.8415545E-2,-7.91549E-2,-2.9190077E-2,-1.3155162E-2,2.4538524E-2,2.5474823E-3,7.14025E-2,3.8671326E-2,7.176028E-2,8.862021E-3,7.624981E-2,2.3380483E-2,5.7959534E-2,-7.1854554E-2],"split_indices":[1,3,1,1,1,2,3,1,2,2,3,3,0,3,0,0,2,1,0,1,0,0,0,2,0,1,3,1,0,1,1,3,0,1,0,1,0,0,2,0,0,0,0,0,0,0,0,0,0,0,0,0,0],"split_type":[0,0,0,0,0,0,0,0,0,0,0,0,0,0,0,0,0,0,0,0,0,0,0,0,0,0,0,0,0,0,0,0,0,0,0,0,0,0,0,0,0,0,0,0,0,0,0,0,0,0,0,0,0],"sum_hessian":[1.263997E3,6.605734E2,6.034235E2,6.182765E2,4.2296944E1,5.3017265E1,5.5040625E2,5.482542E2,7.002231E1,3.411184E1,8.185103E0,4.7615513E1,5.401752E0,1.6497803E2,3.8542825E2,1.6194376E1,5.320598E2,5.7534798E1,1.2487508E1,1.6207825E1,1.7904015E1,4.7001576E0,3.4849463E0,3.5110874E1,1.2504639E1,1.10729225E2,5.4248802E1,5.288305E2,3.229304E0,3.8737442E1,1.8797356E1,1.2502419E1,3.7054045E0,2.6649347E1,8.461526E0,3.0915043E1,7.9814186E1,7.7793026E0,4.6469498E1,6.568252E1,4.63148E2,2.3190176E1,1.5547265E1,1.0069447E1,8.72791E0,4.435443E0,8.066977E0,6.1395063E0,2.050984E1,1.7306204E1,1.3608839E1,4.223151E1,4.2379875E0],"tree_param":{"num_deleted":"0","num_feature":"4","num_nodes":"53","size_leaf_vector":"1"}},{"base_weights":[-9.0933945E-3,-6.10135E-1,6.3592035E-1,-7.0532E-1,3.8829765E-1,6.861283E-2,6.731242E-1,-7.1039957E-1,-5.6760246E-3,4.8590732E-1,-6.3347064E-2,-5.003989E-1,6.620126E-2,5.195914E-1,7.33785E-2,-7.208974E-1,-4.3518998E-2,2.7268782E-1,7.0288694E-1,8.777248E-4,-7.088636E-2,2.1997966E-1,7.235074E-2,-6.2909794E-1,-7.3939675E-1,-7.554207E-2,6.100712E-2,4.647718E-2,7.6808654E-2,4.6787786E-1,-4.3483958E-1,-7.758919E-2,-3.365505E-2,-7.62659E-2,-6.674052E-2,3.7694287E-2,-7.548325E-2,5.1218808E-2,1.2764103E-2,-7.30895E-2,-5.442783E-3],"categories":[],"categories_nodes":[],"categories_segments":[],"categories_sizes":[],"default_left":[0,0,0,0,0,0,0,0,0,0,0,0,0,0,0,0,0,0,0,0,0,0,0,0,0,0,0,0,0,0,0,0,0,0,0,0,0,0,0,0,0],"id":4,"left_children":[1,3,5,7,9,11,13,15,-1,17,-1,19,-1,21,-1,23,-1,25,27,-1,-1,29,-1,31,33,35,-1,-1,-1,37,39,-1,-1,-1,-1,-1,-1,-1,-1,-1,-1],"loss_changes":[4.407364E2,5.6200516E1,1.1527832E1,1.7307434E0,5.4804688E0,1.2102663E1,4.410614E0,1.2272034E0,0E0,2.024744E0,0E0,1.95574E0,0E0,8.9525795E0,0E0,4.0472412E-1,0E0,3.0769053E0,1.8081665E-3,0E0,0E0,1.0240927E1,0E0,3.7161522E0,1.953888E-1,4.4599137E0,0E0,0E0,0E0,6.1810017E-1,1.9309888E0,0E0,0E0,0E0,0E0,0E0,0E0,0E0,0E0,0E0,0E0],"parents":[2147483647,0,0,1,1,2,2,3,3,4,4,5,5,6,6,7,7,9,9,11,11,13,13,15,15,17,17,18,18,21,21,23,23,24,24,25,25,29,29,30,30],"right_children":[2,4,6,8,10,12,14,16,-1,18,-1,20,-1,22,-1,24,-1,26,28,-1,-1,30,-1,32,34,36,-1,-1,-1,38,40,-1,-1,-1,-1,-1,-1,-1,-1,-1,-1],"split_conditions":[5.4E1,9.348035E-2,5.9E1,2E-1,4.8E1,3.895687E-1,7.1E1,5E1,-5.6760246E-3,1.8181819E-1,-6.3347064E-2,5.5E1,6.620126E-2,3.0483693E-1,7.33785E-2,1.9E1,-4.3518998E-2,2.3249584E-1,1.2198986E-1,8.777248E-4,-7.088636E-2,1.1111111E-1,7.235074E-2,1.7E1,3.8E1,2.4E1,6.100712E-2,4.647718E-2,7.6808654E-2,6.9E1,1.465013E-1,-7.758919E-2,-3.365505E-2,-7.62659E-2,-6.674052E-2,3.7694287E-2,-7.548325E-2,5.1218808E-2,1.2764103E-2,-7.30895E-2,-5.442783E-3],"split_indices":[0,3,0,2,0,3,0,0,0,2,0,0,0,3,0,0,0,3,3,0,0,2,0,0,0,0,0,0,0,0,3,0,0,0,0,0,0,0,0,0,0],"split_type":[0,0,0,0,0,0,0,0,0,0,0,0,0,0,0,0,0,0,0,0,0,0,0,0,0,0,0,0,0,0,0,0,0,0,0,0,0,0,0,0,0],"sum_hessian":[1.1348551E3,5.874795E2,5.4737555E2,5.366152E2,5.086432E1,3.3862564E1,5.13513E2,5.3235046E2,4.264732E0,4.6907665E1,3.9566522E0,1.7366516E1,1.6496046E1,1.4813882E2,3.6537418E2,5.1123022E2,2.1120235E1,2.4797064E1,2.2110601E1,5.3229866E0,1.2043529E1,6.0834328E1,8.730449E1,9.1615036E1,4.1961517E2,1.2584292E1,1.2212771E1,6.5000935E0,1.5610509E1,4.43355E1,1.6498827E1,5.9904205E1,3.1710829E1,3.0988852E2,1.0972666E2,7.820224E0,4.764068E0,3.87797E1,5.5558004E0,8.760018E0,7.738808E0],"tree_param":{"num_deleted":"0","num_feature":"4","num_nodes":"41","size_leaf_vector":"1"}},{"base_weights":[-1.0488164E-2,-5.002238E-1,6.490653E-1,-5.751707E-1,3.3308926E-1,5.035961E-1,6.699845E-1,-6.248942E-1,2.9947713E-1,3.965794E-1,-2.2393065E-2,-1.7876513E-1,6.1214244E-1,6.2750953E-1,7.001018E-2,-6.646653E-1,-3.3172372E-1,1.348545E-2,6.9859676E-2,4.972722E-1,2.1150987E-1,-7.2210066E-2,3.8409427E-2,3.9508566E-1,7.161546E-2,6.5779746E-1,-3.6918603E-2,-1.3379256E-2,-6.819261E-1,-2.671889E-1,-7.058731E-2,2.1540323E-1,-6.798109E-2,3.276853E-1,6.934984E-2,-8.272559E-2,5.9978962E-2,6.845054E-2,-2.85608E-2,5.863768E-1,7.3473364E-2,-6.87172E-2,-2.625396E-2,-3.8661696E-2,6.480366E-3,-6.2852874E-2,5.4681517E-2,4.962359E-2,-2.1996604E-2,2.1858167E-2,-5.9539E-2,6.501334E-2,-1.870885E-2],"categories":[],"categories_nodes":[],"categories_segments":[],"categories_sizes":[],"default_left":[0,0,0,0,0,0,0,0,0,0,0,0,0,0,0,0,0,0,0,0,0,0,0,0,0,0,0,0,0,0,0,0,0,0,0,0,0,0,0,0,0,0,0,0,0,0,0,0,0,0,0,0,0],"id":5,"left_children":[1,3,5,7,9,11,13,15,17,19,-1,21,23,25,-1,27,29,31,-1,33,35,-1,-1,37,-1,39,-1,-1,41,43,-1,45,-1,47,-1,49,-1,-1,-1,51,-1,-1,-1,-1,-1,-1,-1,-1,-1,-1,-1,-1,-1],"loss_changes":[3.4553094E2,3.853131E1,1.0497742E0,2.4698273E1,1.9026642E0,4.6525574E0,6.6604614E-2,6.001175E0,3.5282528E0,7.595358E-1,0E0,3.0884924E0,9.16893E-1,5.4874496E0,0E0,4.205124E0,1.3986659E0,2.81671E0,0E0,7.481613E-1,2.1164029E0,0E0,0E0,4.0267296E0,0E0,4.9761963E-1,0E0,0E0,8.180847E-1,2.3118486E0,0E0,4.6877956E0,0E0,1.7354932E0,0E0,1.8556453E0,0E0,0E0,0E0,4.686941E0,0E0,0E0,0E0,0E0,0E0,0E0,0E0,0E0,0E0,0E0,0E0,0E0,0E0],"parents":[2147483647,0,0,1,1,2,2,3,3,4,4,5,5,6,6,7,7,8,8,9,9,11,11,12,12,13,13,15,15,16,16,17,17,19,19,20,20,23,23,25,25,28,28,29,29,31,31,33,33,35,35,39,39],"right_children":[2,4,6,8,10,12,14,16,18,20,-1,22,24,26,-1,28,30,32,-1,34,36,-1,-1,38,-1,40,-1,-1,42,44,-1,46,-1,48,-1,50,-1,-1,-1,52,-1,-1,-1,-1,-1,-1,-1,-1,-1,-1,-1,-1,-1],"split_conditions":[6E1,9.4908394E-2,6.8E1,6E1,5.7E1,5.9E1,4.6870774E-1,4.6E1,7.1E1,4.1E1,-2.2393065E-2,4.064105E-1,3.0226535E-1,4.668924E-1,7.001018E-2,6E0,5.3E1,5.2E1,6.9859676E-2,3.4E1,5.4E1,-7.2210066E-2,3.8409427E-2,1.7172413E-2,7.161546E-2,9.1E1,-3.6918603E-2,-1.3379256E-2,5.9853293E-2,4.8E1,-7.058731E-2,4.4E1,-6.798109E-2,2.5E1,6.934984E-2,4.8E1,5.9978962E-2,6.845054E-2,-2.85608E-2,8.8E1,7.3473364E-2,-6.87172E-2,-2.625396E-2,-3.8661696E-2,6.480366E-3,-6.2852874E-2,5.4681517E-2,4.962359E-2,-2.1996604E-2,2.1858167E-2,-5.9539E-2,6.501334E-2,-1.870885E-2],"split_indices":[1,3,1,0,1,0,3,0,0,1,0,3,3,3,0,0,1,1,0,1,1,0,0,3,0,0,0,0,3,1,0,1,0,0,0,1,0,0,0,1,0,0,0,0,0,0,0,0,0,0,0,0,0],"split_type":[0,0,0,0,0,0,0,0,0,0,0,0,0,0,0,0,0,0,0,0,0,0,0,0,0,0,0,0,0,0,0,0,0,0,0,0,0,0,0,0,0,0,0,0,0,0,0,0,0,0,0,0,0],"sum_hessian":[1.0677273E3,6.128855E2,4.5484186E2,5.6259625E2,5.0289238E1,6.0337383E1,3.9450446E2,5.326034E2,2.999284E1,4.540224E1,4.886996E0,8.192087E0,5.2145294E1,1.727321E2,2.2177237E2,4.678662E2,6.4737175E1,1.8074924E1,1.1917914E1,2.8311531E1,1.709071E1,4.024383E0,4.167704E0,1.8447256E1,3.369804E1,1.6796785E2,4.764243E0,1.5008726E1,4.5285748E2,5.667565E1,8.061526E0,1.4531911E1,3.5430138E0,1.6618801E1,1.1692732E1,1.0170514E1,6.920196E0,1.2939846E1,5.5074096E0,9.157731E1,7.639055E1,4.466323E2,6.2251925E0,4.156051E1,1.5115142E1,3.844774E0,1.0687137E1,1.277953E1,3.839271E0,6.766997E0,3.4035175E0,8.475078E1,6.826534E0],"tree_param":{"num_deleted":"0","num_feature":"4","num_nodes":"53","size_leaf_vector":"1"}},{"base_weights":[1.5036539E-2,-5.615513E-1,5.8498037E-1,-6.3243175E-1,2.8544515E-1,3.534353E-1,6.5574753E-1,-1.4382879E-2,-6.491119E-1,3.7022465E-1,-5.361718E-2,-2.3868183E-2,5.9810466E-1,5.3225714E-1,6.756731E-2,-6.6658485E-1,-2.4519968E-1,1.5294674E-1,6.467628E-2,1.8628508E-1,-6.89952E-2,3.7708056E-1,6.509771E-2,2.7018324E-1,6.845454E-2,-6.7239743E-1,-1.4857867E-3,-1.3964479E-1,-5.724621E-2,-2.7039847E-1,5.3381056E-2,-3.0291548E-1,3.6515665E-1,6.065279E-2,-2.1560133E-2,4.358744E-2,-8.698159E-2,-5.289823E-2,-6.965959E-2,-3.1667948E-2,9.645389E-3,3.78814E-2,-7.473048E-2,1.1410866E-2,-5.944368E-2,2.8513437E-2,6.689172E-2,2.092146E-3,-1.5634099E-2],"categories":[],"categories_nodes":[],"categories_segments":[],"categories_sizes":[],"default_left":[0,0,0,0,0,0,0,0,0,0,0,0,0,0,0,0,0,0,0,0,0,0,0,0,0,0,0,0,0,0,0,0,0,0,0,0,0,0,0,0,0,0,0,0,0,0,0,0,0],"id":6,"left_children":[1,3,5,7,9,11,13,-1,15,17,-1,19,21,23,-1,25,27,29,-1,31,-1,33,-1,35,-1,37,-1,39,-1,41,-1,43,45,-1,-1,-1,47,-1,-1,-1,-1,-1,-1,-1,-1,-1,-1,-1,-1],"loss_changes":[3.2443314E2,2.96447E1,7.903351E0,3.6001282E0,2.8864038E0,1.0943096E1,5.731201E-1,0E0,2.9273682E0,2.0383396E0,0E0,6.7820625E0,5.9422874E-1,2.1051178E0,0E0,1.5780334E0,6.0201275E-1,3.5672631E0,0E0,3.3412292E0,0E0,2.3402374E0,0E0,1.3836758E0,0E0,1.07341E0,0E0,7.0974123E-1,0E0,3.6014154E0,0E0,1.336009E0,4.774382E-1,0E0,0E0,0E0,6.3443206E-2,0E0,0E0,0E0,0E0,0E0,0E0,0E0,0E0,0E0,0E0,0E0,0E0],"parents":[2147483647,0,0,1,1,2,2,3,3,4,4,5,5,6,6,8,8,9,9,11,11,12,12,13,13,15,15,16,16,17,17,19,19,21,21,23,23,25,25,27,27,29,29,31,31,32,32,36,36],"right_children":[2,4,6,8,10,12,14,-1,16,18,-1,20,22,24,-1,26,28,30,-1,32,-1,34,-1,36,-1,38,-1,40,-1,42,-1,44,46,-1,-1,-1,48,-1,-1,-1,-1,-1,-1,-1,-1,-1,-1,-1,-1],"split_conditions":[5.4E1,9.4908394E-2,6.7E1,6E0,4.8E1,2.24829E-1,7.2E1,-1.4382879E-2,5E1,1.8181819E-1,-5.361718E-2,1.1111111E-1,4.7524917E-1,3.0483693E-1,6.756731E-2,2E-1,8.3333336E-2,2.3249584E-1,6.467628E-2,5.8E1,-6.89952E-2,2.857143E-1,6.509771E-2,1.7172413E-2,6.845454E-2,1.9E1,-1.4857867E-3,5.2E1,-5.724621E-2,2.4E1,5.3381056E-2,5.5E1,8.3333336E-2,6.065279E-2,-2.1560133E-2,4.358744E-2,1.7159139E-1,-5.289823E-2,-6.965959E-2,-3.1667948E-2,9.645389E-3,3.78814E-2,-7.473048E-2,1.1410866E-2,-5.944368E-2,2.8513437E-2,6.689172E-2,2.092146E-3,-1.5634099E-2],"split_indices":[0,3,0,0,0,3,0,0,0,2,0,2,3,3,0,2,2,3,0,0,0,2,0,3,0,0,0,0,0,0,0,0,2,0,0,0,3,0,0,0,0,0,0,0,0,0,0,0,0],"split_type":[0,0,0,0,0,0,0,0,0,0,0,0,0,0,0,0,0,0,0,0,0,0,0,0,0,0,0,0,0,0,0,0,0,0,0,0,0,0,0,0,0,0,0,0,0,0,0,0,0],"sum_hessian":[9.852518E2,4.8977853E2,4.9547327E2,4.521905E2,3.7588036E1,1.173867E2,3.7808655E2,1.5245147E1,4.3694534E2,3.4570255E1,3.0177777E0,4.6532146E1,7.085456E1,5.6379784E1,3.217068E2,4.1820383E2,1.8741518E1,2.0229147E1,1.4341109E1,3.591963E1,1.061252E1,1.5247382E1,5.5607178E1,2.1740528E1,3.4639256E1,4.144755E2,3.7283144E0,1.5249625E1,3.4918938E0,9.717642E0,1.0511506E1,9.43155E0,2.6488075E1,1.09751625E1,4.27222E0,1.4700497E1,7.0400314E0,6.3138344E1,3.5133716E2,8.519853E0,6.729772E0,4.202484E0,5.5151577E0,4.130872E0,5.3006783E0,2.2499516E1,3.9885607E0,3.027885E0,4.0121465E0],"tree_param":{"num_deleted":"0","num_feature":"4","num_nodes":"49","size_leaf_vector":"1"}},{"base_weights":[1.249839E-2,-5.0049335E-1,5.796747E-1,-5.9200794E-1,2.940076E-1,4.3484184E-1,6.497476E-2,-6.224478E-1,-3.6469504E-1,4.785262E-2,5.10672E-1,1.7359385E-1,6.239669E-1,-6.466694E-3,-6.3541615E-1,1.817498E-3,-4.3147781E-1,-2.1417649E-1,3.7993398E-1,6.258125E-2,3.1310537E-1,3.3760163E-1,-1.6489492E-1,6.364787E-1,2.5391713E-2,-6.414719E-1,-2.8273245E-4,-6.647885E-2,-3.405808E-1,2.7552265E-1,-7.374387E-2,5.8786977E-2,7.204629E-3,-1.8924756E-2,5.6016184E-2,3.0427584E-1,5.64739E-2,-4.8034924E-1,2.3354249E-1,3.7696432E-2,6.529539E-2,-5.2728463E-2,-6.644836E-2,-1.770425E-2,-6.42878E-2,6.314198E-2,-1.4032649E-2,3.7879296E-2,2.601328E-2,-1.8980792E-3,-6.407205E-2,5.9680667E-2,-2.0274397E-2],"categories":[],"categories_nodes":[],"categories_segments":[],"categories_sizes":[],"default_left":[0,0,0,0,0,0,0,0,0,0,0,0,0,0,0,0,0,0,0,0,0,0,0,0,0,0,0,0,0,0,0,0,0,0,0,0,0,0,0,0,0,0,0,0,0,0,0,0,0,0,0,0,0],"id":7,"left_children":[1,3,5,7,9,11,-1,13,15,17,19,21,23,-1,25,-1,27,29,31,-1,33,35,37,39,-1,41,-1,-1,43,45,-1,-1,-1,-1,-1,47,-1,49,51,-1,-1,-1,-1,-1,-1,-1,-1,-1,-1,-1,-1,-1,-1],"loss_changes":[2.6700302E2,3.5209778E1,4.1404266E0,2.7651062E0,2.6656294E0,7.062088E0,0E0,2.7072449E0,1.3753605E0,2.2320306E0,4.1194963E-1,3.515778E0,2.2637177E-1,0E0,1.4201813E0,0E0,7.402172E-1,3.9070463E0,6.7860603E-1,0E0,1.5755744E0,1.4845324E-1,2.7534983E0,9.758377E-2,0E0,6.1572266E-1,0E0,0E0,1.6091466E0,1.3014278E0,0E0,0E0,0E0,0E0,0E0,2.9971838E-2,0E0,8.798566E-1,1.6993489E0,0E0,0E0,0E0,0E0,0E0,0E0,0E0,0E0,0E0,0E0,0E0,0E0,0E0,0E0],"parents":[2147483647,0,0,1,1,2,2,3,3,4,4,5,5,7,7,8,8,9,9,10,10,11,11,12,12,14,14,16,16,17,17,18,18,20,20,21,21,22,22,23,23,25,25,28,28,29,29,35,35,37,37,38,38],"right_children":[2,4,6,8,10,12,-1,14,16,18,20,22,24,-1,26,-1,28,30,32,-1,34,36,38,40,-1,42,-1,-1,44,46,-1,-1,-1,-1,-1,48,-1,50,52,-1,-1,-1,-1,-1,-1,-1,-1,-1,-1,-1,-1,-1,-1],"split_conditions":[5.7E1,9.4908394E-2,7.2E1,4.6E1,1.8181819E-1,3.0483693E-1,6.497476E-2,4E0,4.7E1,2.3249584E-1,4.5E1,1E-1,4.4444445E-1,-6.466694E-3,1.6666667E-1,1.817498E-3,4.9E1,2.4E1,4.6E1,6.258125E-2,5.630981E-1,8.3333336E-2,1.465013E-1,5.9E1,2.5391713E-2,1.9E1,-2.8273245E-4,-6.647885E-2,5.3E1,1.1483741E-1,-7.374387E-2,5.8786977E-2,7.204629E-3,-1.8924756E-2,5.6016184E-2,6.1E1,5.64739E-2,3.1209938E-2,1.6666667E-1,3.7696432E-2,6.529539E-2,-5.2728463E-2,-6.644836E-2,-1.770425E-2,-6.42878E-2,6.314198E-2,-1.4032649E-2,3.7879296E-2,2.601328E-2,-1.8980792E-3,-6.407205E-2,5.9680667E-2,-2.0274397E-2],"split_indices":[0,3,0,0,2,3,0,0,0,3,0,2,2,0,2,0,0,0,0,0,3,2,3,0,0,0,0,0,0,3,0,0,0,0,0,0,0,3,2,0,0,0,0,0,0,0,0,0,0,0,0,0,0],"split_type":[0,0,0,0,0,0,0,0,0,0,0,0,0,0,0,0,0,0,0,0,0,0,0,0,0,0,0,0,0,0,0,0,0,0,0,0,0,0,0,0,0,0,0,0,0,0,0,0,0,0,0,0,0],"sum_hessian":[9.156753E2,4.8086597E2,4.3480936E2,4.314269E2,4.943905E1,1.4412488E2,2.9068448E2,3.789437E2,5.2483208E1,2.3715942E1,2.5723106E1,6.13277E1,8.279718E1,8.746275E0,3.7019742E2,7.9029465E0,4.458026E1,1.3454615E1,1.0261328E1,1.4882235E1,1.0840872E1,4.131297E1,2.001473E1,7.939283E1,3.4043503E0,3.6667322E2,3.524205E0,1.0728681E1,3.385158E1,7.194777E0,6.259838E0,5.582054E0,4.679274E0,3.6510303E0,7.1898413E0,3.8067307E1,3.2456615E0,1.1055885E1,8.958845E0,6.164903E0,7.322792E1,6.551116E1,3.0116205E2,2.299648E1,1.0855101E1,3.597518E0,3.5972588E0,1.1341274E1,2.6726034E1,3.1402178E0,7.915668E0,4.6877613E0,4.271084E0],"tree_param":{"num_deleted":"0","num_feature":"4","num_nodes":"53","size_leaf_vector":"1"}},{"base_weights":[4.7407188E-3,-4.9427247E-1,5.355949E-1,-5.574983E-1,2.0932385E-1,5.83817E-2,5.692007E-1,-9.26516E-2,-5.766638E-1,-7.757711E-2,4.7726437E-1,-4.1587374E-1,4.9542853E-1,4.557452E-1,6.1570406E-2,-3.223924E-2,7.276847E-2,-6.113468E-1,-3.761649E-1,4.8396476E-2,-4.371765E-1,5.975173E-2,4.1183378E-3,6.049531E-3,-6.279686E-2,5.5000465E-2,2.213247E-2,2.5896475E-1,5.6970257E-1,-6.1783946E-1,5.34353E-3,-4.2090297E-1,-1.0638046E-2,-7.352059E-2,2.9373715E-2,3.665654E-1,-3.2957408E-1,6.0741436E-2,-1.7421645E-3,-4.955907E-2,-6.4246535E-2,-1.9429611E-2,-4.6918795E-2,3.262562E-2,5.9507262E-2,-4.0067164E-3,-5.280866E-2],"categories":[],"categories_nodes":[],"categories_segments":[],"categories_sizes":[],"default_left":[0,0,0,0,0,0,0,0,0,0,0,0,0,0,0,0,0,0,0,0,0,0,0,0,0,0,0,0,0,0,0,0,0,0,0,0,0,0,0,0,0,0,0,0,0,0,0],"id":8,"left_children":[1,3,5,7,9,11,13,15,17,19,21,23,25,27,-1,-1,-1,29,31,-1,33,-1,-1,-1,-1,-1,-1,35,37,39,-1,41,-1,-1,-1,43,45,-1,-1,-1,-1,-1,-1,-1,-1,-1,-1],"loss_changes":[2.2268733E2,1.9393074E1,6.498993E0,3.4911423E0,2.8393993E0,5.9912066E0,1.7264557E0,3.428258E0,2.42585E0,3.9401662E0,9.7123575E-1,1.4453478E0,1.023891E-1,2.4187737E0,0E0,0E0,0E0,1.4314499E0,6.663914E-1,0E0,2.782429E0,0E0,0E0,0E0,0E0,0E0,0E0,2.8947148E0,1.5967731E0,6.4779663E-1,0E0,4.5814228E-1,0E0,0E0,0E0,1.5131664E-1,3.9820856E-1,0E0,0E0,0E0,0E0,0E0,0E0,0E0,0E0,0E0,0E0],"parents":[2147483647,0,0,1,1,2,2,3,3,4,4,5,5,6,6,7,7,8,8,9,9,10,10,11,11,12,12,13,13,17,17,18,18,20,20,27,27,28,28,29,29,31,31,35,35,36,36],"right_children":[2,4,6,8,10,12,14,16,18,20,22,24,26,28,-1,-1,-1,30,32,-1,34,-1,-1,-1,-1,-1,-1,36,38,40,-1,42,-1,-1,-1,44,46,-1,-1,-1,-1,-1,-1,-1,-1,-1,-1],"split_conditions":[5.4E1,9.4908394E-2,5.8E1,6E0,1.8181819E-1,4.064105E-1,7.2E1,4E0,4.3E1,2.5E1,4.3E1,5.5E1,3E-1,1.465013E-1,6.1570406E-2,-3.223924E-2,7.276847E-2,1.8181819E-1,5.2E1,4.8396476E-2,3.0909196E-1,5.975173E-2,4.1183378E-3,6.049531E-3,-6.279686E-2,5.5000465E-2,2.213247E-2,1.1111111E-1,4.2857143E-1,1.9E1,5.34353E-3,4.4E1,-1.0638046E-2,-7.352059E-2,2.9373715E-2,8.3333336E-2,3.8615488E-2,6.0741436E-2,-1.7421645E-3,-4.955907E-2,-6.4246535E-2,-1.9429611E-2,-4.6918795E-2,3.262562E-2,5.9507262E-2,-4.0067164E-3,-5.280866E-2],"split_indices":[0,3,0,0,2,3,0,0,0,0,0,0,2,3,0,0,0,2,0,0,3,0,0,0,0,0,0,2,2,0,0,0,0,0,0,2,3,0,0,0,0,0,0,0,0,0,0],"split_type":[0,0,0,0,0,0,0,0,0,0,0,0,0,0,0,0,0,0,0,0,0,0,0,0,0,0,0,0,0,0,0,0,0,0,0,0,0,0,0,0,0,0,0,0,0,0,0],"sum_hessian":[8.386372E2,4.3231842E2,4.063188E2,3.9686353E2,3.545489E1,2.6911034E1,3.7940775E2,1.5945657E1,3.8091788E2,1.7464746E1,1.7990147E1,1.292936E1,1.3981674E1,1.13441635E2,2.6596613E2,1.2931189E1,3.0144677E0,3.229958E2,5.7922096E1,6.6829567E0,1.078179E1,1.3811354E1,4.1787925E0,4.2033434E0,8.726017E0,1.0820646E1,3.161028E0,4.2802753E1,7.0638885E1,3.1994162E2,3.0541542E0,4.920272E1,8.719375E0,7.6547146E0,3.1270754E0,3.650569E1,6.2970586E0,6.6343025E1,4.2958627E0,5.7185253E1,2.6275638E2,9.524958E0,3.967776E1,3.3095364E1,3.4103284E0,3.0503395E0,3.2467194E0],"tree_param":{"num_deleted":"0","num_feature":"4","num_nodes":"47","size_leaf_vector":"1"}},{"base_weights":[-9.685831E-3,-5.033579E-1,5.076932E-1,-5.5962896E-1,2.1027254E-1,2.614985E-1,5.908387E-1,-6.037044E-1,-3.154383E-1,-1.3116919E-1,4.66065E-1,2.19375E-2,5.792544E-2,5.4715556E-1,6.613472E-2,-2.9660285E-2,-6.157654E-1,-4.0567982E-1,-1.5917219E-1,-4.360916E-1,3.233583E-2,5.8615442E-2,5.3629642E-3,-4.0056854E-1,1.5357038E-1,4.2755485E-1,5.99702E-1,-6.3186646E-2,-5.128445E-1,-3.1106243E-1,-6.2745206E-2,-5.400301E-2,-5.3366292E-2,-1.30699E-2,-6.5793E-2,2.5460725E-3,-5.989067E-2,2.535441E-1,-4.0445514E-2,4.928743E-1,-1.4785281E-2,6.1837208E-2,2.590832E-3,-3.3080205E-2,-6.259835E-2,-4.1208953E-2,1.6532959E-4,-1.6136985E-2,1.8244727E-2,9.390436E-3,5.730922E-2,5.4796983E-2,-8.852141E-3],"categories":[],"categories_nodes":[],"categories_segments":[],"categories_sizes":[],"default_left":[0,0,0,0,0,0,0,0,0,0,0,0,0,0,0,0,0,0,0,0,0,0,0,0,0,0,0,0,0,0,0,0,0,0,0,0,0,0,0,0,0,0,0,0,0,0,0,0,0,0,0,0,0],"id":9,"left_children":[1,3,5,7,9,11,13,15,17,19,21,23,-1,25,-1,-1,27,29,31,33,-1,-1,-1,35,37,39,41,-1,43,45,-1,47,-1,-1,-1,-1,-1,49,-1,51,-1,-1,-1,-1,-1,-1,-1,-1,-1,-1,-1,-1,-1],"loss_changes":[1.9401826E2,1.5726799E1,7.4380646E0,3.6902847E0,2.6058884E0,7.2519817E0,4.8970795E-1,9.446411E-1,7.4239016E-1,1.9787245E0,8.0448127E-1,3.1455092E0,0E0,8.5285187E-1,0E0,0E0,1.5969849E-1,5.5246735E-1,8.610614E-1,4.8048544E-1,0E0,0E0,0E0,1.1516974E0,2.5015614E0,2.228775E0,1.2710648E0,0E0,7.155943E-1,8.523576E-1,0E0,5.055235E-1,0E0,0E0,0E0,0E0,0E0,1.8379083E0,0E0,1.705966E0,0E0,0E0,0E0,0E0,0E0,0E0,0E0,0E0,0E0,0E0,0E0,0E0,0E0],"parents":[2147483647,0,0,1,1,2,2,3,3,4,4,5,5,6,6,7,7,8,8,9,9,10,10,11,11,13,13,16,16,17,17,18,18,19,19,23,23,24,24,25,25,26,26,28,28,29,29,31,31,37,37,39,39],"right_children":[2,4,6,8,10,12,14,16,18,20,22,24,-1,26,-1,-1,28,30,32,34,-1,-1,-1,36,38,40,42,-1,44,46,-1,48,-1,-1,-1,-1,-1,50,-1,52,-1,-1,-1,-1,-1,-1,-1,-1,-1,-1,-1,-1,-1],"split_conditions":[5.4E1,1.0709333E-1,6.7E1,4.3E1,1.8181819E-1,4.7524917E-1,9.4E1,4E0,4.9E1,2.3249584E-1,4.3E1,5.8E1,5.792544E-2,3.1237146E-1,6.613472E-2,-2.9660285E-2,3.8E1,4.7E1,8.3333336E-2,1.6250351E-1,3.233583E-2,5.8615442E-2,5.3629642E-3,5.5E1,1.8181819E-1,2.2222222E-1,9.2E1,-6.3186646E-2,3.9E1,4.6E1,-6.2745206E-2,5.2E1,-5.3366292E-2,-1.30699E-2,-6.5793E-2,2.5460725E-3,-5.989067E-2,8.640573E-2,-4.0445514E-2,3.100211E-1,-1.4785281E-2,6.1837208E-2,2.590832E-3,-3.3080205E-2,-6.259835E-2,-4.1208953E-2,1.6532959E-4,-1.6136985E-2,1.8244727E-2,9.390436E-3,5.730922E-2,5.4796983E-2,-8.852141E-3],"split_indices":[0,3,0,0,2,3,0,0,0,3,0,0,0,3,0,0,0,0,2,3,0,0,0,0,2,2,0,0,0,0,0,0,0,0,0,0,0,3,0,3,0,0,0,0,0,0,0,0,0,0,0,0,0],"split_type":[0,0,0,0,0,0,0,0,0,0,0,0,0,0,0,0,0,0,0,0,0,0,0,0,0,0,0,0,0,0,0,0,0,0,0,0,0,0,0,0,0,0,0,0,0,0,0,0,0,0,0,0,0],"sum_hessian":[7.576175E2,3.8770486E2,3.6991263E2,3.5956805E2,2.8136787E1,9.443491E1,2.7547772E2,3.033435E2,5.6224567E1,1.2259515E1,1.5877274E1,5.4451862E1,3.998305E1,1.7550488E2,9.9972824E1,1.2430333E1,2.9091318E2,3.463009E1,2.1594475E1,7.3615417E0,4.897973E0,1.1970579E1,3.906694E0,1.2449442E1,4.2002422E1,5.636025E1,1.1914464E2,2.4711488E2,4.3798275E1,2.5957954E1,8.672136E0,1.7753046E1,3.841429E0,3.7661102E0,3.5954316E0,4.2316055E0,8.217836E0,3.6083485E1,5.9189377E0,5.074337E1,5.616881E0,1.1531483E2,3.8298101E0,1.8291233E1,2.550704E1,1.9379398E1,6.578556E0,1.2427518E1,5.325529E0,2.4925219E1,1.1158266E1,4.6403473E1,4.339896E0],"tree_param":{"num_deleted":"0","num_feature":"4","num_nodes":"53","size_leaf_vector":"1"}},{"base_weights":[3.3187906E-3,-4.04879E-1,5.40914E-1,-4.6455875E-1,2.4844308E-1,3.5564023E-1,5.7942655E-2,-5.1378465E-1,2.0774636E-1,-5.630314E-2,3.4834224E-1,-8.940676E-2,4.2813796E-1,-1.03403805E-2,-5.303351E-1,3.6114958E-1,-5.5160668E-2,2.1097316E-1,5.8509495E-2,-5.551932E-2,3.134854E-2,2.8454286E-1,5.462844E-2,-5.717615E-1,-3.4762612E-1,9.948339E-2,5.000947E-1,2.778369E-1,5.5634424E-2,4.2213675E-1,-1.2419133E-2,-4.024258E-2,-6.0142227E-2,-2.976039E-2,-6.360329E-2,3.0818645E-2,-2.1313867E-2,1.9940816E-2,5.722713E-2,1.028584E-2,4.634099E-2,-1.931507E-2,3.153043E-2,5.8758426E-2,1.3306442E-2],"categories":[],"categories_nodes":[],"categories_segments":[],"categories_sizes":[],"default_left":[0,0,0,0,0,0,0,0,0,0,0,0,0,0,0,0,0,0,0,0,0,0,0,0,0,0,0,0,0,0,0,0,0,0,0,0,0,0,0,0,0,0,0,0,0],"id":10,"left_children":[1,3,5,7,9,11,-1,13,15,-1,17,19,21,-1,23,25,-1,27,-1,-1,-1,29,-1,31,33,35,37,39,41,43,-1,-1,-1,-1,-1,-1,-1,-1,-1,-1,-1,-1,-1,-1,-1],"loss_changes":[1.558781E2,1.5858063E1,1.9814224E0,1.2362183E1,2.988604E0,1.8240876E0,0E0,2.2906876E0,3.22513E0,0E0,8.9415765E-1,1.7842683E0,6.5495396E-1,0E0,2.3119278E0,7.5792456E-1,0E0,2.0644367E-1,0E0,0E0,0E0,1.3824229E0,0E0,1.108284E0,7.3199844E-1,6.498404E-1,1.9540095E-1,4.291793E-1,5.5699205E-1,7.7887034E-1,0E0,0E0,0E0,0E0,0E0,0E0,0E0,0E0,0E0,0E0,0E0,0E0,0E0,0E0,0E0],"parents":[2147483647,0,0,1,1,2,2,3,3,4,4,5,5,7,7,8,8,10,10,11,11,12,12,14,14,15,15,17,17,21,21,23,23,24,24,25,25,26,26,27,27,28,28,29,29],"right_children":[2,4,6,8,10,12,-1,14,16,-1,18,20,22,-1,24,26,-1,28,-1,-1,-1,30,-1,32,34,36,38,40,42,44,-1,-1,-1,-1,-1,-1,-1,-1,-1,-1,-1,-1,-1,-1,-1],"split_conditions":[5.8E1,5.9E1,7E1,1.0750583E-1,4E1,6.1E1,5.7942655E-2,6E0,4.8E1,-5.630314E-2,7.1E1,4.3538105E-1,2.811189E-1,-1.03403805E-2,4.3E1,3.1E1,-5.5160668E-2,5.2E1,5.8509495E-2,-5.551932E-2,3.134854E-2,1.7172413E-2,5.462844E-2,1.9E1,5.1E1,2.5E1,1.415274E-1,4.8E1,5.6E1,6.7E1,-1.2419133E-2,-4.024258E-2,-6.0142227E-2,-2.976039E-2,-6.360329E-2,3.0818645E-2,-2.1313867E-2,1.9940816E-2,5.722713E-2,1.028584E-2,4.634099E-2,-1.931507E-2,3.153043E-2,5.8758426E-2,1.3306442E-2],"split_indices":[1,0,1,3,1,0,0,0,1,0,0,3,3,0,0,1,0,1,0,0,0,3,0,1,1,1,3,1,1,1,0,0,0,0,0,0,0,0,0,0,0,0,0,0,0],"split_type":[0,0,0,0,0,0,0,0,0,0,0,0,0,0,0,0,0,0,0,0,0,0,0,0,0,0,0,0,0,0,0,0,0,0,0,0,0,0,0,0,0,0,0,0,0],"sum_hessian":[7.083302E2,4.0276007E2,3.0557013E2,3.6931296E2,3.3447117E1,5.4348392E1,2.5122176E2,3.4433655E2,2.49764E1,3.1580973E0,3.028902E1,7.580457E0,4.6767937E1,1.3629575E1,3.3070697E2,2.1214983E1,3.7614172E0,2.0364313E1,9.924707E0,3.3404827E0,4.2399745E0,2.2648888E1,2.4119047E1,2.6784747E2,6.285948E1,7.953213E0,1.3261769E1,1.3685124E1,6.6791883E0,1.6920187E1,5.7287025E0,4.2094406E1,2.2575308E2,5.5299965E1,7.5595174E0,4.7777967E0,3.1754162E0,3.2955084E0,9.966261E0,7.8435984E0,5.841526E0,3.5419123E0,3.137276E0,1.0104389E1,6.8157964E0],"tree_param":{"num_deleted":"0","num_feature":"4","num_nodes":"45","size_leaf_vector":"1"}}]},"name":"gbtree"},"learner_model_param":{"base_score":"1.1529112E-8","boost_from_average":"1","num_class":"0","num_feature":"4","num_target":"1"},"objective":{"lambdarank_param":{"lambdarank_bias_norm":"1","lambdarank_num_pair_per_sample":"4294967295","lambdarank_pair_method":"topk","lambdarank_unbiased":"0","ndcg_exp_gain":"1"},"name":"rank:pairwise"}},"version":[2,0,3]}