{"learner":{"attributes":{"best_iteration":"0","best_score":"1.0"},"feature_names":[],"feature_types":[],"gradient_booster":{"model":{"gbtree_model_param":{"num_parallel_tree":"1","num_trees":"11"},"iteration_indptr":[0,1,2,3,4,5,6,7,8,9,10,11],"tree_info":[0,0,0,0,0,0,0,0,0,0,0],"trees":[{"base_weights":[1.1515191E-8,-8.126011E-1,8.878778E-1,-8.7336326E-1,6.5341896E-1,2.9359066E-1,9.496214E-1,-8.967997E-1,6.9582626E-2,8.5916E-2,-1.77846E-2,-3.1698322E-1,9.216156E-2,7.9173034E-1,9.94489E-2,-9.547631E-1,-4.2253083E-1,1.2863879E-1,-6.838616E-2,9.422687E-2,-1.8225374E-2,-9.819843E-2,-5.1723075E-1,5.44904E-2,-6.3814694E-1,2.6052788E-2,-1.2603563E-2,-2.2676818E-2,2.1529665E-2,-6.8119414E-2,2.0132344E-2,2.0132344E-2,-7.450975E-2],"categories":[],"categories_nodes":[],"categories_segments":[],"categories_sizes":[],"default_left":[0,0,0,0,0,0,0,0,0,0,0,0,0,0,0,0,0,0,0,0,0,0,0,0,0,0,0,0,0,0,0,0,0],"id":0,"left_children":[1,3,5,7,9,11,13,15,-1,-1,-1,17,-1,19,-1,21,23,25,-1,-1,27,-1,29,-1,31,-1,-1,-1,-1,-1,-1,-1,-1],"loss_changes":[5.9825134E2,3.9136963E1,1.426062E1,1.5928253E1,3.197434E0,1.5147382E1,1.7523193E0,1.08802185E1,0E0,0E0,0E0,3.4210582E0,0E0,1.0287987E1,0E0,3.8388367E0,1.0046404E1,3.703146E-1,0E0,0E0,7.3954016E-1,0E0,2.9045534E0,0E0,3.6049833E0,0E0,0E0,0E0,0E0,0E0,0E0,0E0,0E0],"parents":[2147483647,0,0,1,1,2,2,3,3,4,4,5,5,6,6,7,7,11,11,13,13,15,15,16,16,17,17,20,20,22,22,24,24],"right_children":[2,4,6,8,10,12,14,16,-1,-1,-1,18,-1,20,-1,22,24,26,-1,-1,28,-1,30,-1,32,-1,-1,-1,-1,-1,-1,-1,-1],"split_conditions":[5.3E1,1.8181819E-1,6.1E1,6.8E1,4.4E1,6.2E1,7.1E1,6.666667E-2,6.9582626E-2,8.5916E-2,-1.77846E-2,5.5E1,9.216156E-2,2.5E-1,9.94489E-2,5.3E1,2.5E1,5.4E1,-6.838616E-2,9.422687E-2,6.8E1,-9.819843E-2,4.9E1,5.44904E-2,9.090909E-2,2.6052788E-2,-1.2603563E-2,-2.2676818E-2,2.1529665E-2,-6.8119414E-2,2.0132344E-2,2.0132344E-2,-7.450975E-2],"split_indices":[1,2,1,0,1,0,1,2,0,0,0,1,0,2,0,0,1,1,0,0,1,0,1,0,2,0,0,0,0,0,0,0,0],"split_type":[0,0,0,0,0,0,0,0,0,0,0,0,0,0,0,0,0,0,0,0,0,0,0,0,0,0,0,0,0,0,0,0,0],"sum_hessian":[8.2718805E2,4.3194724E2,3.9524078E2,4.15145E2,1.6802258E1,3.7740456E1,3.5750034E2,4.0945807E2,5.686918E0,1.3441806E1,3.3604512E0,1.9387218E1,1.8353235E1,8.3235794E1,2.7426453E2,3.6396274E2,4.5495342E1,9.047369E0,1.033985E1,7.005249E1,1.318331E1,3.4147354E2,2.2489174E1,8.013384E0,3.7481956E1,5.945414E0,3.1019552E0,6.9793987E0,6.2039104E0,1.8353233E1,4.13594E0,4.13594E0,3.3346016E1],"tree_param":{"num_deleted":"0","num_feature":"4","num_nodes":"33","size_leaf_vector":"1"}},{"base_weights":[5.061509E-4,-6.917415E-1,8.182223E-1,-8.0063605E-1,1.0650307E-1,3.880318E-1,8.634357E-1,-8.423668E-1,1.4183813E-1,7.001645E-1,-7.302678E-1,-1.2543428E-1,4.8813877E-1,7.537011E-1,9.0740085E-2,-8.8896626E-1,-5.453802E-1,3.85356E-1,-3.5795078E-1,3.856567E-1,8.924848E-2,-2.2832097E-2,-8.1254625E-1,2.2521295E-2,-7.7115335E-2,8.47964E-2,3.8563648E-1,8.286295E-1,-8.801212E-2,-8.968185E-1,1.3797096E-2,-4.2848444E-1,-8.896743E-2,-7.314507E-4,5.5652344E-1,-8.210315E-2,7.254039E-2,5.689282E-2,5.3700317E-2,-9.285756E-2,-3.104775E-1,-3.597845E-1,5.459542E-1,8.466942E-1,3.4285482E-2,-9.041811E-2,-1.9109879E-2,-5.361435E-2,-2.452877E-2,3.676317E-2,7.91744E-2,-1.6563118E-2,4.330712E-2,4.390457E-2,-7.930947E-2,-8.001809E-2,3.7862968E-2,6.3820146E-2,-7.991699E-3,4.026356E-2,8.650346E-2],"categories":[],"categories_nodes":[],"categories_segments":[],"categories_sizes":[],"default_left":[0,0,0,0,0,0,0,0,0,0,0,0,0,0,0,0,0,0,0,0,0,0,0,0,0,0,0,0,0,0,0,0,0,0,0,0,0,0,0,0,0,0,0,0,0,0,0,0,0,0,0,0,0,0,0,0,0,0,0,0,0],"id":1,"left_children":[1,3,5,7,9,11,13,15,17,19,21,23,25,27,-1,29,31,33,35,37,-1,-1,39,-1,-1,-1,41,43,-1,45,-1,47,-1,-1,49,-1,-1,-1,51,-1,53,55,57,59,-1,-1,-1,-1,-1,-1,-1,-1,-1,-1,-1,-1,-1,-1,-1,-1,-1],"loss_changes":[9.331027E2,7.768204E1,1.4363983E1,3.1019196E1,5.4182503E1,3.848957E0,2.6113586E0,9.929077E0,4.2964153E0,3.5095768E0,1.6865673E0,3.0759716E0,1.9549665E0,2.537011E1,0E0,5.355835E0,3.8303356E0,1.5805709E0,6.471406E0,1.5474329E0,0E0,0E0,1.9577007E0,0E0,0E0,0E0,6.170151E0,1.4030762E0,0E0,3.173584E0,0E0,1.4472876E0,0E0,0E0,4.3528986E-1,0E0,0E0,0E0,9.3130326E-1,0E0,3.5096915E0,3.376286E0,2.449131E0,1.1614075E0,0E0,0E0,0E0,0E0,0E0,0E0,0E0,0E0,0E0,0E0,0E0,0E0,0E0,0E0,0E0,0E0,0E0],"parents":[2147483647,0,0,1,1,2,2,3,3,4,4,5,5,6,6,7,7,8,8,9,9,10,10,11,11,12,12,13,13,15,15,16,16,17,17,18,18,19,19,22,22,26,26,27,27,29,29,31,31,34,34,38,38,40,40,41,41,42,42,43,43],"right_children":[2,4,6,8,10,12,14,16,18,20,22,24,26,28,-1,30,32,34,36,38,-1,-1,40,-1,-1,-1,42,44,-1,46,-1,48,-1,-1,50,-1,-1,-1,52,-1,54,56,58,60,-1,-1,-1,-1,-1,-1,-1,-1,-1,-1,-1,-1,-1,-1,-1,-1,-1],"split_conditions":[1.3302965E-1,5.3E1,1.960898E-1,8.566578E-2,1.4826772E-2,3.2E1,7.4E1,4.3E1,3.5E1,5.9E1,1.1111111E-1,2.5E1,1.3730493E-1,4.2857143E-1,9.0740085E-2,1.8181819E-1,1.4826772E-2,1.4285715E-1,2.2222222E-1,5.5E1,8.924848E-2,-2.2832097E-2,1.0290219E-1,2.2521295E-2,-7.7115335E-2,8.47964E-2,1.509976E-1,3E-1,-8.801212E-2,6.832537E-2,1.3797096E-2,4.7E1,-8.896743E-2,-7.314507E-4,2.6E1,-8.210315E-2,7.254039E-2,5.689282E-2,5.8E1,-9.285756E-2,1.19503856E-1,6.3E1,6.9E1,4.8E1,3.4285482E-2,-9.041811E-2,-1.9109879E-2,-5.361435E-2,-2.452877E-2,3.676317E-2,7.91744E-2,-1.6563118E-2,4.330712E-2,4.390457E-2,-7.930947E-2,-8.001809E-2,3.7862968E-2,6.3820146E-2,-7.991699E-3,4.026356E-2,8.650346E-2],"split_indices":[3,1,3,3,3,1,1,1,1,1,2,1,3,2,0,2,3,2,2,1,0,0,3,0,0,0,3,2,0,3,0,1,0,0,1,0,0,0,1,0,3,1,1,1,0,0,0,0,0,0,0,0,0,0,0,0,0,0,0,0,0],"split_type":[0,0,0,0,0,0,0,0,0,0,0,0,0,0,0,0,0,0,0,0,0,0,0,0,0,0,0,0,0,0,0,0,0,0,0,0,0,0,0,0,0,0,0,0,0,0,0,0,0,0,0,0,0,0,0,0,0,0,0,0,0],"sum_hessian":[1.6464106E3,8.916919E2,7.5471875E2,7.846491E2,1.07042816E2,7.2688995E1,6.820297E2,7.514813E2,3.316778E1,6.2713154E1,4.4329662E1,1.1818228E1,6.0870766E1,2.002815E2,4.8174823E2,6.4783746E2,1.03643845E2,2.2455496E1,1.0712286E1,2.493743E1,3.7775723E1,6.7747416E0,3.755492E1,8.081125E0,3.7371023E0,1.1883201E1,4.8987564E1,1.9197041E2,8.311083E0,6.4304724E2,4.790217E0,7.9049324E1,2.4594522E1,7.1075425E0,1.5347954E1,7.6741185E0,3.0381677E0,1.5607014E1,9.330417E0,2.9815083E1,7.7398396E0,8.450682E0,4.0536884E1,1.8437115E2,7.599259E0,6.3612946E2,6.917785E0,4.8576077E1,3.0473246E1,9.933705E0,5.4142485E0,6.2692723E0,3.0611444E0,3.0669808E0,4.6728587E0,5.2411613E0,3.20952E0,3.5312473E1,5.22441E0,8.223241E0,1.7614792E2],"tree_param":{"num_deleted":"0","num_feature":"4","num_nodes":"61","size_leaf_vector":"1"}},{"base_weights":[-1.7741068E-3,-6.6829413E-1,7.2372246E-1,-7.23636E-1,4.72031E-1,2.794226E-1,7.9416126E-1,-7.7683073E-1,1.19051985E-1,6.5678E-1,-7.1630366E-2,-3.841831E-2,7.712534E-2,6.509738E-1,8.488076E-2,-8.283739E-1,-3.727943E-1,-6.979888E-2,2.2913145E-1,4.3029366E-3,8.287632E-2,-5.0583273E-1,9.7813584E-2,7.873496E-1,-1.7540482E-1,-8.4355496E-2,-1.7065898E-1,4.7742376E-1,-5.661577E-1,3.3840925E-1,-6.980704E-2,-1.7937543E-2,-7.711869E-2,3.8388377E-1,-2.6279524E-1,3.3968996E-2,8.151917E-2,-5.78058E-1,6.683165E-2,-7.409963E-2,3.4467414E-2,5.9228547E-2,1.735182E-2,-4.1342963E-2,-8.318343E-2,1.1968474E-2,5.4926902E-2,4.7655873E-2,-4.689082E-3,-9.713551E-3,-7.7813774E-2,-2.5196144E-2,-8.181311E-2],"categories":[],"categories_nodes":[],"categories_segments":[],"categories_sizes":[],"default_left":[0,0,0,0,0,0,0,0,0,0,0,0,0,0,0,0,0,0,0,0,0,0,0,0,0,0,0,0,0,0,0,0,0,0,0,0,0,0,0,0,0,0,0,0,0,0,0,0,0,0,0,0,0],"id":2,"left_children":[1,3,5,7,9,11,13,15,17,19,-1,21,-1,23,-1,25,27,-1,29,-1,-1,31,33,35,37,-1,39,41,43,45,-1,-1,-1,47,49,-1,-1,51,-1,-1,-1,-1,-1,-1,-1,-1,-1,-1,-1,-1,-1,-1,-1],"loss_changes":[6.607089E2,4.5281677E1,2.025293E1,3.0554413E1,7.83961E0,1.4266094E1,3.861786E0,1.3005554E1,3.866944E0,3.0857172E0,0E0,3.6327403E0,0E0,1.8183876E1,0E0,5.509247E0,1.2460821E1,0E0,3.9928563E0,0E0,0E0,9.7584033E-1,4.6822915E0,1.4384155E0,8.36984E0,0E0,4.3781605E0,3.9576578E-1,2.125946E0,1.4949872E0,0E0,0E0,0E0,1.0272369E0,1.6523012E0,0E0,0E0,1.0812268E0,0E0,0E0,0E0,0E0,0E0,0E0,0E0,0E0,0E0,0E0,0E0,0E0,0E0,0E0,0E0],"parents":[2147483647,0,0,1,1,2,2,3,3,4,4,5,5,6,6,7,7,8,8,9,9,11,11,13,13,15,15,16,16,18,18,21,21,22,22,23,23,24,24,26,26,27,27,28,28,29,29,33,33,34,34,37,37],"right_children":[2,4,6,8,10,12,14,16,18,20,-1,22,-1,24,-1,26,28,-1,30,-1,-1,32,34,36,38,-1,40,42,44,46,-1,-1,-1,48,50,-1,-1,52,-1,-1,-1,-1,-1,-1,-1,-1,-1,-1,-1,-1,-1,-1,-1],"split_conditions":[5.3E1,1.8181819E-1,5.9E1,5.9E1,4.4E1,7.1E1,7.1E1,7.1428575E-2,4E1,2.6E1,-7.1630366E-2,1E-1,7.712534E-2,2.2222222E-1,8.488076E-2,4.9E1,2.4E1,-6.979888E-2,4.9E1,4.3029366E-3,8.287632E-2,4.9E1,1.6666667E-1,6.2E1,7.1E1,-8.4355496E-2,5.3E1,1.25E-1,4.4E1,6.4E1,-6.980704E-2,-1.7937543E-2,-7.711869E-2,5.7E1,7E1,3.3968996E-2,8.151917E-2,6.5E1,6.683165E-2,-7.409963E-2,3.4467414E-2,5.9228547E-2,1.735182E-2,-4.1342963E-2,-8.318343E-2,1.1968474E-2,5.4926902E-2,4.7655873E-2,-4.689082E-3,-9.713551E-3,-7.7813774E-2,-2.5196144E-2,-8.181311E-2],"split_indices":[1,2,0,0,1,1,1,2,1,0,0,2,0,2,0,1,1,0,1,0,0,0,2,0,0,0,0,2,0,0,0,0,0,0,1,0,0,0,0,0,0,0,0,0,0,0,0,0,0,0,0,0,0],"split_type":[0,0,0,0,0,0,0,0,0,0,0,0,0,0,0,0,0,0,0,0,0,0,0,0,0,0,0,0,0,0,0,0,0,0,0,0,0,0,0,0,0,0,0,0,0,0,0,0,0,0,0,0,0],"sum_hessian":[1.3643486E3,7.1111755E2,6.532311E2,6.7855176E2,3.2565792E1,9.007028E1,5.6316077E2,6.3833496E2,4.021679E1,2.8571175E1,3.994617E0,5.527271E1,3.4797573E1,1.5912495E2,4.0403583E2,5.6518384E2,7.315114E1,4.1409225E0,3.6075867E1,6.5273676E0,2.2043808E1,1.1861755E1,4.3410954E1,1.3662517E2,2.2499784E1,5.5215674E2,1.3027104E1,1.3281849E1,5.9869293E1,3.2840397E1,3.2354705E0,6.07E0,5.791755E0,2.4171339E1,1.9239613E1,8.772764E0,1.278524E2,1.5444162E1,7.0556216E0,5.9756947E0,7.0514097E0,8.950194E0,4.331655E0,3.9638603E1,2.0230688E1,1.6889034E1,1.5951363E1,1.9804419E1,4.366919E0,1.5458787E1,3.7808266E0,7.4178505E0,8.026312E0],"tree_param":{"num_deleted":"0","num_feature":"4","num_nodes":"53","size_leaf_vector":"1"}},{"base_weights":[-1.0586525E-2,-6.067456E-1,7.04814E-1,-7.4246186E-1,5.812138E-1,2.2381504E-1,7.553826E-1,-7.5853795E-1,-2.9979494E-1,6.9138026E-1,-7.2162665E-2,3.274846E-1,-7.164975E-2,4.893314E-1,7.7513E-2,-7.744363E-1,-4.6081227E-1,-1.0752335E-1,-7.344457E-2,5.403271E-1,7.867878E-2,1.3662912E-1,7.698283E-2,1.846129E-1,7.163774E-1,-7.85869E-2,-5.47768E-1,3.133326E-2,-6.6384834E-1,1.0763961E-2,-1.9897726E-1,6.311541E-2,1.6567942E-2,-2.1852335E-1,5.0514686E-1,6.1540164E-2,-1.5766943E-1,3.476663E-2,7.6102816E-2,-4.6608035E-2,-7.297494E-2,2.1182556E-2,-7.933698E-2,-6.286848E-2,1.550881E-3,-7.318971E-2,1.0117109E-2,7.599943E-2,-1.1210504E-2,-7.072895E-2,2.5716482E-2],"categories":[],"categories_nodes":[],"categories_segments":[],"categories_sizes":[],"default_left":[0,0,0,0,0,0,0,0,0,0,0,0,0,0,0,0,0,0,0,0,0,0,0,0,0,0,0,0,0,0,0,0,0,0,0,0,0,0,0,0,0,0,0,0,0,0,0,0,0,0,0],"id":3,"left_children":[1,3,5,7,9,11,13,15,17,19,-1,21,-1,23,-1,25,27,29,-1,31,-1,33,-1,35,37,-1,39,-1,41,-1,43,-1,-1,45,47,-1,49,-1,-1,-1,-1,-1,-1,-1,-1,-1,-1,-1,-1,-1,-1],"loss_changes":[5.289615E2,1.0950046E2,1.3543457E1,4.0963135E0,1.0534828E1,5.6011987E0,2.298584E0,2.4151611E0,1.8385944E0,5.113621E-1,0E0,4.1389217E0,0E0,2.4919662E0,0E0,1.0063782E0,5.2623262E0,3.5750377E-1,0E0,8.600378E-1,0E0,4.8658676E0,0E0,2.683652E0,8.7534904E-2,0E0,1.0472298E-1,0E0,3.0937634E0,0E0,1.1467541E0,0E0,0E0,3.2253506E0,2.9377341E0,0E0,2.5921648E0,0E0,0E0,0E0,0E0,0E0,0E0,0E0,0E0,0E0,0E0,0E0,0E0,0E0,0E0],"parents":[2147483647,0,0,1,1,2,2,3,3,4,4,5,5,6,6,7,7,8,8,9,9,11,11,13,13,15,15,16,16,17,17,19,19,21,21,23,23,24,24,26,26,28,28,30,30,33,33,34,34,36,36],"right_children":[2,4,6,8,10,12,14,16,18,20,-1,22,-1,24,-1,26,28,30,-1,32,-1,34,-1,36,38,-1,40,-1,42,-1,44,-1,-1,46,48,-1,50,-1,-1,-1,-1,-1,-1,-1,-1,-1,-1,-1,-1,-1,-1],"split_conditions":[1.05815984E-1,6.4E1,1.960898E-1,5.9E1,1.4826772E-2,2.857143E-1,5.5E1,5.06605E-2,1.4826772E-2,7.4E1,-7.2162665E-2,6.1E1,-7.164975E-2,3.8053775E-1,7.7513E-2,5.3E1,2.3E1,6E1,-7.344457E-2,7E1,7.867878E-2,2.2222222E-1,7.698283E-2,4.4E1,1E-1,-7.85869E-2,1.4826772E-2,3.133326E-2,5.275413E-2,1.0763961E-2,6.1E1,6.311541E-2,1.6567942E-2,1.44818E-1,4.3E1,6.1540164E-2,5.3E1,3.476663E-2,7.6102816E-2,-4.6608035E-2,-7.297494E-2,2.1182556E-2,-7.933698E-2,-6.286848E-2,1.550881E-3,-7.318971E-2,1.0117109E-2,7.599943E-2,-1.1210504E-2,-7.072895E-2,2.5716482E-2],"split_indices":[3,0,3,0,3,2,0,3,3,0,0,0,0,3,0,0,0,0,0,0,0,2,0,0,2,0,3,0,3,0,0,0,0,3,0,0,0,0,0,0,0,0,0,0,0,0,0,0,0,0,0],"split_type":[0,0,0,0,0,0,0,0,0,0,0,0,0,0,0,0,0,0,0,0,0,0,0,0,0,0,0,0,0,0,0,0,0,0,0,0,0,0,0,0,0,0,0,0,0,0,0,0,0,0,0],"sum_hessian":[1.2382571E3,6.754999E2,5.6275714E2,6.065776E2,6.892232E1,5.4051895E1,5.0870523E2,5.8463226E2,2.194534E1,6.3981453E1,4.9408617E0,4.9271442E1,4.7804546E0,3.6930393E1,4.7177484E2,5.534758E2,3.1156397E1,1.6079714E1,5.8656254E0,2.7347338E1,3.6634117E1,3.533467E1,1.3936771E1,1.6542204E1,2.038819E1,5.2455145E2,2.8924362E1,6.360721E0,2.4795675E1,4.743271E0,1.1336443E1,2.1460047E1,5.887291E0,1.8200897E1,1.7133774E1,6.9708786E0,9.571325E0,3.1513922E0,1.7236797E1,2.2421127E1,6.5032353E0,3.1130934E0,2.1682583E1,3.131528E0,8.204915E0,6.489892E0,1.1711004E1,1.1963214E1,5.1705594E0,3.8136158E0,5.757709E0],"tree_param":{"num_deleted":"0","num_feature":"4","num_nodes":"51","size_leaf_vector":"1"}},{"base_weights":[-2.0490175E-2,-6.0990524E-1,6.2985057E-1,-6.790908E-1,1.19968675E-1,2.0146896E-1,7.0597357E-1,-7.353134E-1,-4.9164402E-1,-6.998647E-2,6.052323E-1,6.3548887E-1,-4.885388E-1,3.375746E-1,7.194481E-1,-7.4953474E-2,-1.2616698E-1,-4.2835322E-1,-7.343871E-2,-1.874898E-1,5.338627E-2,6.980421E-2,2.0481765E-2,4.6509746E-1,7.347271E-2,-7.620839E-2,-4.0376563E-2,5.348873E-1,-1.7769102E-2,5.8566606E-1,7.307676E-2,-2.550566E-1,1.4755423E-2,-4.5179725E-1,2.1470603E-2,2.2532462E-1,-5.545914E-1,5.3162124E-2,2.2057017E-2,2.1193948E-1,-6.3191354E-2,6.952819E-2,2.0937135E-2,7.475609E-2,-3.4277435E-2,-6.0618993E-2,1.7571423E-2,-5.0086346E-2,-2.1576239E-2,2.907798E-3,6.5554574E-2,-7.620874E-2,-5.94865E-3,-6.291501E-3,4.9864154E-2,6.5109745E-2,-6.834118E-2],"categories":[],"categories_nodes":[],"categories_segments":[],"categories_sizes":[],"default_left":[0,0,0,0,0,0,0,0,0,0,0,0,0,0,0,0,0,0,0,0,0,0,0,0,0,0,0,0,0,0,0,0,0,0,0,0,0,0,0,0,0,0,0,0,0,0,0,0,0,0,0,0,0,0,0,0,0],"id":4,"left_children":[1,3,5,7,9,11,13,15,17,19,21,23,25,27,29,-1,31,33,-1,35,-1,-1,-1,37,-1,-1,39,41,-1,43,-1,45,-1,47,-1,49,51,-1,-1,53,-1,-1,-1,-1,55,-1,-1,-1,-1,-1,-1,-1,-1,-1,-1,-1,-1],"loss_changes":[4.2826035E2,2.9675278E1,1.7179459E1,5.2815704E0,4.7980766E0,2.4732105E1,1.9940796E0,3.4562988E0,1.6299152E0,2.7945628E0,4.002638E-1,5.1210594E-1,3.8987255E0,1.9031982E0,2.2901917E-1,0E0,4.0996343E-1,1.6466656E0,0E0,5.054563E0,0E0,0E0,0E0,2.2938061E-1,0E0,0E0,2.1048214E0,5.388911E-1,0E0,3.9279718E0,0E0,1.247231E0,0E0,1.0442429E0,0E0,1.3336906E0,1.75317E0,0E0,0E0,8.1981456E-1,0E0,0E0,0E0,0E0,4.452312E0,0E0,0E0,0E0,0E0,0E0,0E0,0E0,0E0,0E0,0E0,0E0,0E0],"parents":[2147483647,0,0,1,1,2,2,3,3,4,4,5,5,6,6,7,7,8,8,9,9,10,10,11,11,12,12,13,13,14,14,16,16,17,17,19,19,23,23,26,26,27,27,29,29,31,31,33,33,35,35,36,36,39,39,44,44],"right_children":[2,4,6,8,10,12,14,16,18,20,22,24,26,28,30,-1,32,34,-1,36,-1,-1,-1,38,-1,-1,40,42,-1,44,-1,46,-1,48,-1,50,52,-1,-1,54,-1,-1,-1,-1,56,-1,-1,-1,-1,-1,-1,-1,-1,-1,-1,-1,-1],"split_conditions":[5.3E1,8.566578E-2,1.509976E-1,4E1,2.2222222E-1,1.4826772E-2,6.1E1,1.1111111E-1,1.4826772E-2,3.3385575E-1,4.4E1,5.9E1,1.0290219E-1,1.6666667E-1,3.1593025E-1,-7.4953474E-2,1.6666667E-1,6.666667E-2,-7.343871E-2,2.6E1,5.338627E-2,6.980421E-2,2.0481765E-2,5.7E1,7.347271E-2,-7.620839E-2,2.5E-1,1.649858E-1,-1.7769102E-2,2.2222222E-1,7.307676E-2,6.352023E-2,1.4755423E-2,4.8E1,2.1470603E-2,1.3614744E-1,1.6666667E-1,5.3162124E-2,2.2057017E-2,6.3E1,-6.3191354E-2,6.952819E-2,2.0937135E-2,7.475609E-2,2.5015667E-1,-6.0618993E-2,1.7571423E-2,-5.0086346E-2,-2.1576239E-2,2.907798E-3,6.5554574E-2,-7.620874E-2,-5.94865E-3,-6.291501E-3,4.9864154E-2,6.5109745E-2,-6.834118E-2],"split_indices":[1,3,3,1,2,3,1,2,3,3,1,1,3,2,3,0,2,2,0,1,0,0,0,1,0,0,2,3,0,2,0,3,0,1,0,3,2,0,0,1,0,0,0,0,3,0,0,0,0,0,0,0,0,0,0,0,0],"split_type":[0,0,0,0,0,0,0,0,0,0,0,0,0,0,0,0,0,0,0,0,0,0,0,0,0,0,0,0,0,0,0,0,0,0,0,0,0,0,0,0,0,0,0,0,0,0,0,0,0,0,0,0,0,0,0,0,0],"sum_hessian":[1.1152357E3,5.8505365E2,5.3018207E2,5.3446106E2,5.0592594E1,8.054762E1,4.4963446E2,4.088948E2,1.2556626E2,3.6974716E1,1.3617878E1,4.9494335E1,3.1053288E1,1.6784803E1,4.3284967E2,3.9934122E2,9.553592E0,1.0179081E2,2.377545E1,3.1528984E1,5.4457326E0,1.0451979E1,3.1658993E0,2.0309582E1,2.9184755E1,1.8848345E1,1.2204942E1,1.210956E1,4.6752434E0,3.7881287E1,3.9496838E2,6.541517E0,3.0120747E0,9.849732E1,3.29349E0,1.5022282E1,1.6506702E1,1.5043037E1,5.2665434E0,9.005445E0,3.199497E0,7.351331E0,4.758229E0,2.9874002E1,8.007286E0,3.3795388E0,3.1619782E0,8.061693E1,1.7880392E1,1.1049574E1,3.9727077E0,1.125186E1,5.2548428E0,4.9962316E0,4.0092134E0,3.893447E0,4.1138387E0],"tree_param":{"num_deleted":"0","num_feature":"4","num_nodes":"57","size_leaf_vector":"1"}},{"base_weights":[-1.4925032E-2,-5.921164E-1,6.0846084E-1,-6.6984665E-1,1.8156077E-1,2.8194416E-1,6.878393E-1,-7.121247E-1,6.2062956E-2,2.6088628E-1,-6.1581124E-2,-4.566143E-1,5.982428E-1,3.7559006E-2,6.9191617E-1,-7.2575144E-2,-2.0165867E-1,-1.8731648E-1,5.4703403E-2,-1.7752305E-1,3.9684916E-1,-7.296667E-2,2.9126655E-3,7.1240775E-2,2.8089917E-1,5.126348E-1,6.993734E-2,-6.428497E-2,3.204398E-2,-6.4334854E-2,4.47963E-2,3.6852118E-2,-7.621535E-2,4.604198E-1,-2.232652E-3,6.754071E-2,-4.1839463E-1,-6.409659E-2,6.356316E-2,3.0500177E-1,6.612729E-2,3.660335E-2,-2.574998E-2,1.8273873E-2,6.0605973E-2,-6.891596E-2,8.46902E-4,4.9057715E-2,-6.465775E-3],"categories":[],"categories_nodes":[],"categories_segments":[],"categories_sizes":[],"default_left":[0,0,0,0,0,0,0,0,0,0,0,0,0,0,0,0,0,0,0,0,0,0,0,0,0,0,0,0,0,0,0,0,0,0,0,0,0,0,0,0,0,0,0,0,0,0,0,0,0],"id":5,"left_children":[1,3,5,7,9,11,13,15,17,19,-1,21,23,-1,25,-1,27,29,-1,31,33,-1,35,-1,37,39,-1,-1,-1,-1,41,-1,-1,43,-1,-1,45,-1,-1,47,-1,-1,-1,-1,-1,-1,-1,-1,-1],"loss_changes":[3.7267453E2,3.2463013E1,1.2712372E1,1.5172607E1,3.315949E0,2.3418144E1,2.4916077E-1,3.0692902E0,3.4426987E0,2.8167584E0,0E0,3.8009372E0,2.3287754E0,0E0,1.676178E-1,0E0,3.2936425E0,2.0383348E0,0E0,3.9830885E0,9.556198E-1,0E0,3.761987E0,0E0,6.986505E0,3.9891386E-1,0E0,0E0,0E0,0E0,1.4067581E0,0E0,0E0,1.1368947E0,0E0,0E0,9.498726E-1,0E0,0E0,7.160182E-1,0E0,0E0,0E0,0E0,0E0,0E0,0E0,0E0,0E0],"parents":[2147483647,0,0,1,1,2,2,3,3,4,4,5,5,6,6,7,7,8,8,9,9,11,11,12,12,14,14,16,16,17,17,19,19,20,20,22,22,24,24,25,25,30,30,33,33,36,36,39,39],"right_children":[2,4,6,8,10,12,14,16,18,20,-1,22,24,-1,26,-1,28,30,-1,32,34,-1,36,-1,38,40,-1,-1,-1,-1,42,-1,-1,44,-1,-1,46,-1,-1,48,-1,-1,-1,-1,-1,-1,-1,-1,-1],"split_conditions":[5.3E1,8.566578E-2,2.2141849E-1,5.9E1,5E1,6.2E1,6E1,4.9E1,6.8E1,1.0223089E-1,-6.1581124E-2,1.3302965E-1,4.0866222E-2,3.7559006E-2,2.8592384E-1,-7.2575144E-2,5.3E1,4.4E1,5.4703403E-2,2.4E1,4.4E1,-7.296667E-2,1.3730493E-1,7.1240775E-2,9.108319E-2,7.1E1,6.993734E-2,-6.428497E-2,3.204398E-2,-6.4334854E-2,4.6E1,3.6852118E-2,-7.621535E-2,3.4E1,-2.232652E-3,6.754071E-2,5.8E1,-6.409659E-2,6.356316E-2,2.6357177E-1,6.612729E-2,3.660335E-2,-2.574998E-2,1.8273873E-2,6.0605973E-2,-6.891596E-2,8.46902E-4,4.9057715E-2,-6.465775E-3],"split_indices":[1,3,3,0,1,0,1,1,0,3,0,3,3,0,3,0,0,1,0,0,0,0,3,0,3,0,0,0,0,0,1,0,0,0,0,0,0,0,0,3,0,0,0,0,0,0,0,0,0],"split_type":[0,0,0,0,0,0,0,0,0,0,0,0,0,0,0,0,0,0,0,0,0,0,0,0,0,0,0,0,0,0,0,0,0,0,0,0,0,0,0,0,0,0,0,0,0,0,0,0,0],"sum_hessian":[1.0337439E3,5.367856E2,4.9695828E2,4.879011E2,4.8884514E1,9.8077385E1,3.988809E2,4.612826E2,2.6618492E1,4.5073277E1,3.8112383E0,2.9275463E1,6.8801926E1,6.3409853E0,3.9253992E2,4.4887814E2,1.2404438E1,1.79844E1,8.634092E0,1.0597192E1,3.447608E1,1.7994944E1,1.12805195E1,4.968335E1,1.9118574E1,1.8460806E1,3.740791E2,6.597795E0,5.8066435E0,5.4685774E0,1.2515822E1,5.6705527E0,4.926639E0,2.985065E1,4.625433E0,4.112688E0,7.1678314E0,5.088327E0,1.4030248E1,8.975242E0,9.485563E0,5.9655943E0,6.550228E0,1.1045578E1,1.8805073E1,4.009856E0,3.1579754E0,5.7576814E0,3.21756E0],"tree_param":{"num_deleted":"0","num_feature":"4","num_nodes":"49","size_leaf_vector":"1"}},{"base_weights":[2.1307409E-2,-5.370285E-1,6.0247195E-1,-6.770888E-1,3.2453778E-1,1.966658E-1,6.609405E-1,-6.8891907E-1,-4.7457963E-1,4.1798458E-1,-6.2233012E-2,2.553358E-1,-5.8188196E-2,3.704428E-1,6.854316E-2,-6.953477E-2,-3.1639397E-1,-3.638833E-1,-6.415542E-2,2.1954392E-1,6.86816E-2,4.2164567E-1,8.701981E-2,2.1202248E-1,5.64928E-1,4.141605E-3,-5.868134E-2,-2.7438763E-1,-5.6306344E-2,7.595828E-2,3.6118338E-1,-2.1701641E-2,6.758878E-1,-2.0933014E-1,4.5310107E-1,4.7740078E-1,-1.7940943E-1,2.6831944E-2,6.370517E-2,-1.75095E-2,-3.164742E-2,-4.234203E-3,3.509403E-2,4.7728054E-2,2.491473E-2,4.440554E-2,-3.6389988E-2,7.776132E-2,3.6056343E-2,-4.2220067E-2,1.4510246E-2,3.0425584E-2,6.054489E-2,-7.3575485E-3,6.734984E-2,-2.3058953E-2,-6.6046678E-3],"categories":[],"categories_nodes":[],"categories_segments":[],"categories_sizes":[],"default_left":[0,0,0,0,0,0,0,0,0,0,0,0,0,0,0,0,0,0,0,0,0,0,0,0,0,0,0,0,0,0,0,0,0,0,0,0,0,0,0,0,0,0,0,0,0,0,0,0,0,0,0,0,0,0,0,0,0],"id":6,"left_children":[1,3,5,7,9,11,13,15,17,19,-1,21,-1,23,-1,-1,25,27,-1,29,-1,31,33,35,37,-1,-1,39,-1,41,43,45,47,49,51,53,55,-1,-1,-1,-1,-1,-1,-1,-1,-1,-1,-1,-1,-1,-1,-1,-1,-1,-1,-1,-1],"loss_changes":[3.106061E2,5.9134155E1,1.0998154E1,6.7993164E-1,6.3605475E0,2.9115236E0,2.6596375E0,7.256317E-1,2.5471592E-1,3.2287884E0,0E0,1.5573325E0,0E0,9.2830133E-1,0E0,0E0,8.499939E-1,1.6979647E-1,0E0,7.4369454E-1,0E0,3.2139149E0,3.3019297E0,2.1992965E0,1.4288521E-1,0E0,0E0,5.192995E-3,0E0,6.685709E-1,1.258986E-1,1.9647127E0,2.9923153E-1,1.3454447E0,1.2284541E-1,1.3892496E0,3.668624E-2,0E0,0E0,0E0,0E0,0E0,0E0,0E0,0E0,0E0,0E0,0E0,0E0,0E0,0E0,0E0,0E0,0E0,0E0,0E0,0E0],"parents":[2147483647,0,0,1,1,2,2,3,3,4,4,5,5,6,6,7,7,8,8,9,9,11,11,13,13,16,16,17,17,19,19,21,21,22,22,23,23,24,24,27,27,29,29,30,30,31,31,32,32,33,33,34,34,35,35,36,36],"right_children":[2,4,6,8,10,12,14,16,18,20,-1,22,-1,24,-1,-1,26,28,-1,30,-1,32,34,36,38,-1,-1,40,-1,42,44,46,48,50,52,54,56,-1,-1,-1,-1,-1,-1,-1,-1,-1,-1,-1,-1,-1,-1,-1,-1,-1,-1,-1,-1],"split_conditions":[8.566578E-2,5.9E1,1.8589306E-1,5.3E1,1.25E-1,2.857143E-1,5.5E1,6.832537E-2,5.6E1,7.4E1,-6.2233012E-2,3.8E1,-5.8188196E-2,3.9466947E-1,6.854316E-2,-6.953477E-2,7.2991766E-2,1.4826772E-2,-6.415542E-2,6.4E1,6.86816E-2,1.4285715E-1,6E1,4.6E1,4.5E1,4.141605E-3,-5.868134E-2,5.4E1,-5.6306344E-2,6.666667E-2,6.7E1,1.1111111E-1,1.3614744E-1,2.2222222E-1,7.2E1,3.8E1,3.3385575E-1,2.6831944E-2,6.370517E-2,-1.75095E-2,-3.164742E-2,-4.234203E-3,3.509403E-2,4.7728054E-2,2.491473E-2,4.440554E-2,-3.6389988E-2,7.776132E-2,3.6056343E-2,-4.2220067E-2,1.4510246E-2,3.0425584E-2,6.054489E-2,-7.3575485E-3,6.734984E-2,-2.3058953E-2,-6.6046678E-3],"split_indices":[3,0,3,0,2,2,0,3,0,0,0,0,0,3,0,0,3,3,0,0,0,2,0,0,0,0,0,0,0,2,0,2,3,2,0,0,3,0,0,0,0,0,0,0,0,0,0,0,0,0,0,0,0,0,0,0,0],"split_type":[0,0,0,0,0,0,0,0,0,0,0,0,0,0,0,0,0,0,0,0,0,0,0,0,0,0,0,0,0,0,0,0,0,0,0,0,0,0,0,0,0,0,0,0,0,0,0,0,0,0,0,0,0,0,0,0,0],"sum_hessian":[9.552308E2,4.872226E2,4.6800818E2,4.1927707E2,6.794555E1,5.9488297E1,4.0851987E2,3.938661E2,2.5410973E1,6.2350693E1,5.594854E0,5.5944454E1,3.5438414E0,3.3017036E1,3.7550284E2,3.8633258E2,7.5334926E0,1.7192453E1,8.218518E0,3.6916824E1,2.5433868E1,2.738287E1,2.8561586E1,1.9347479E1,1.3669555E1,3.6072903E0,3.926202E0,1.3502911E1,3.6895435E0,1.9095364E1,1.782146E1,1.0313257E1,1.7069613E1,1.60207E1,1.2540885E1,1.1399415E1,7.948065E0,3.59703E0,1.0072525E1,5.5557857E0,7.9471245E0,1.3942964E1,5.152399E0,7.1510954E0,1.0670366E1,4.2419696E0,6.071288E0,1.1797575E1,5.2720375E0,9.889757E0,6.1309433E0,7.8593454E0,4.6815395E0,3.156208E0,8.243207E0,4.763427E0,3.184638E0],"tree_param":{"num_deleted":"0","num_feature":"4","num_nodes":"57","size_leaf_vector":"1"}},{"base_weights":[1.1370006E-2,-5.076124E-1,5.7424945E-1,-6.217466E-1,5.097985E-1,2.1675713E-1,6.2884647E-1,-6.4136094E-1,-1.7170101E-1,5.7285976E-1,-6.3045137E-3,1.1476009E-1,5.3992313E-1,2.3804045E-1,6.4506584E-1,-6.648728E-1,-5.182025E-1,-3.2864466E-2,-5.891046E-2,3.5745915E-2,6.1969817E-2,5.6991458E-2,2.4964038E-2,3.4409367E-2,6.25243E-2,-7.34762E-2,4.7072098E-1,5.3369373E-1,6.551484E-2,-6.722152E-2,-2.5737435E-1,-2.8816108E-2,-5.3723752E-2,-7.371496E-3,-6.2872167E-3,-2.4147391E-1,3.2779855E-1,1.1804166E-2,-2.2067979E-2,5.6014575E-2,2.327316E-2,6.577214E-2,-2.5607187E-2,1.0815514E-2,-5.554849E-2,-6.304871E-3,8.4880665E-3,-4.8169557E-2,5.959419E-3,6.405797E-2,-2.4148805E-2],"categories":[],"categories_nodes":[],"categories_segments":[],"categories_sizes":[],"default_left":[0,0,0,0,0,0,0,0,0,0,0,0,0,0,0,0,0,0,0,0,0,0,0,0,0,0,0,0,0,0,0,0,0,0,0,0,0,0,0,0,0,0,0,0,0,0,0,0,0,0,0],"id":7,"left_children":[1,3,5,7,9,11,13,15,17,19,-1,21,23,25,27,29,31,33,-1,-1,-1,-1,35,-1,-1,37,39,41,-1,-1,43,-1,-1,-1,45,47,49,-1,-1,-1,-1,-1,-1,-1,-1,-1,-1,-1,-1,-1,-1],"loss_changes":[2.588605E2,5.3855278E1,8.16037E0,3.5532227E0,1.7359104E0,1.8446884E0,2.1805573E0,8.05954E-1,1.0641577E0,2.0713615E-1,0E0,1.8346587E0,1.2203693E-2,1.2130634E0,4.6722412E-2,8.1459045E-1,1.439228E-1,1.5919097E-2,0E0,0E0,0E0,0E0,3.212115E0,0E0,0E0,2.4641478E-1,7.058048E-2,3.5670366E0,0E0,0E0,8.7326956E-1,0E0,0E0,0E0,5.8316328E-2,1.5642309E0,3.466166E0,0E0,0E0,0E0,0E0,0E0,0E0,0E0,0E0,0E0,0E0,0E0,0E0,0E0,0E0],"parents":[2147483647,0,0,1,1,2,2,3,3,4,4,5,5,6,6,7,7,8,8,9,9,11,11,12,12,13,13,14,14,15,15,16,16,17,17,22,22,25,25,26,26,27,27,30,30,34,34,35,35,36,36],"right_children":[2,4,6,8,10,12,14,16,18,20,-1,22,24,26,28,30,32,34,-1,-1,-1,-1,36,-1,-1,38,40,42,-1,-1,44,-1,-1,-1,46,48,50,-1,-1,-1,-1,-1,-1,-1,-1,-1,-1,-1,-1,-1,-1],"split_conditions":[8.566578E-2,6.4E1,1.960898E-1,5.9E1,1.4826772E-2,6.4E1,5.3E1,4.5E1,6.2E1,6.8E1,-6.3045137E-3,2.4E1,6.9E1,3.8053775E-1,3.2432553E-1,6.832537E-2,4.6E1,6E1,-5.891046E-2,3.5745915E-2,6.1969817E-2,5.6991458E-2,1.8181819E-1,3.4409367E-2,6.25243E-2,2.3441327E-1,4.424135E-1,2.857143E-1,6.551484E-2,-6.722152E-2,7.244462E-2,-2.8816108E-2,-5.3723752E-2,-7.371496E-3,6.666667E-2,4.5E1,4.3E1,1.1804166E-2,-2.2067979E-2,5.6014575E-2,2.327316E-2,6.577214E-2,-2.5607187E-2,1.0815514E-2,-5.554849E-2,-6.304871E-3,8.4880665E-3,-4.8169557E-2,5.959419E-3,6.405797E-2,-2.4148805E-2],"split_indices":[3,0,3,0,3,0,0,0,0,0,0,0,0,3,3,3,0,0,0,0,0,0,2,0,0,3,3,2,0,0,3,0,0,0,2,0,0,0,0,0,0,0,0,0,0,0,0,0,0,0,0],"split_type":[0,0,0,0,0,0,0,0,0,0,0,0,0,0,0,0,0,0,0,0,0,0,0,0,0,0,0,0,0,0,0,0,0,0,0,0,0,0,0,0,0,0,0,0,0,0,0,0,0,0,0],"sum_hessian":[8.8413293E2,4.6005457E2,4.2407834E2,4.1400046E2,4.605411E1,5.684392E1,3.672344E2,3.9630328E2,1.7697187E1,4.1487003E1,4.5671086E0,4.4237026E1,1.2606894E1,1.5258471E1,3.5197595E2,3.2908087E2,6.722239E1,1.4089486E1,3.6077013E0,8.951686E0,3.2535316E1,6.4082737E0,3.7828754E1,5.3531375E0,7.253756E0,6.8165607E0,8.44191E0,3.3696453E1,3.1827948E2,3.2261823E2,6.4626465E0,6.3706503E0,6.085174E1,4.854412E0,9.235074E0,2.0231459E1,1.7597294E1,3.048476E0,3.768085E0,5.152277E0,3.2896328E0,2.9267393E1,4.4290614E0,3.189287E0,3.2733598E0,5.8815994E0,3.3534744E0,1.0919142E1,9.312318E0,1.1276469E1,6.320824E0],"tree_param":{"num_deleted":"0","num_feature":"4","num_nodes":"51","size_leaf_vector":"1"}},{"base_weights":[7.413487E-3,-5.066629E-1,5.6010896E-1,-5.9310555E-1,4.5643017E-2,2.3354591E-1,6.2274307E-1,-6.628564E-2,-4.6963084E-1,-8.661072E-2,5.229202E-1,5.0777614E-1,-1.6112976E-1,3.5287684E-1,6.3526785E-1,-1.742391E-2,-5.0944734E-1,2.2054847E-1,-3.0304578E-1,6.1813932E-2,2.1267036E-2,3.4396273E-1,6.311702E-2,3.9513983E-2,-6.06804E-2,5.41666E-1,-2.0738322E-2,5.6401867E-1,6.598889E-2,-5.9752163E-2,-3.7555498E-1,5.87559E-2,6.97641E-2,-6.580944E-2,2.4623169E-1,4.336371E-2,1.3862061E-2,-3.3606467E-1,3.3975604E-1,2.8406683E-2,6.1479647E-2,6.255815E-2,-6.660138E-2,-3.1173933E-2,-5.896702E-2,4.56153E-2,-1.9309128E-2,2.8630076E-3,5.2062757E-2,-5.6794774E-2,8.595432E-3,1.1954961E-2,4.116645E-2],"categories":[],"categories_nodes":[],"categories_segments":[],"categories_sizes":[],"default_left":[0,0,0,0,0,0,0,0,0,0,0,0,0,0,0,0,0,0,0,0,0,0,0,0,0,0,0,0,0,0,0,0,0,0,0,0,0,0,0,0,0,0,0,0,0,0,0,0,0,0,0,0,0],"id":8,"left_children":[1,3,5,7,9,11,13,-1,15,17,19,21,23,25,27,-1,29,31,33,-1,-1,35,-1,37,-1,39,-1,41,-1,-1,43,-1,45,-1,47,-1,-1,49,51,-1,-1,-1,-1,-1,-1,-1,-1,-1,-1,-1,-1,-1,-1],"loss_changes":[2.2999931E2,2.0050705E1,7.833412E0,2.8126144E0,3.6866138E0,7.0495205E0,8.8010406E-1,0E0,1.4915695E0,3.1268103E0,2.4250507E-1,5.5557823E-1,2.451942E0,1.8829424E0,1.7331696E-1,0E0,1.165762E0,1.043956E0,5.5101156E0,0E0,0E0,2.8276777E-1,0E0,2.3313165E0,0E0,6.644535E-2,0E0,6.985386E0,0E0,0E0,4.9210024E-1,0E0,1.614681E0,0E0,6.714112E-1,0E0,0E0,9.5280766E-1,1.3168085E-1,0E0,0E0,0E0,0E0,0E0,0E0,0E0,0E0,0E0,0E0,0E0,0E0,0E0,0E0],"parents":[2147483647,0,0,1,1,2,2,3,3,4,4,5,5,6,6,8,8,9,9,10,10,11,11,12,12,13,13,14,14,16,16,17,17,18,18,21,21,23,23,25,25,27,27,30,30,32,32,34,34,37,37,38,38],"right_children":[2,4,6,8,10,12,14,-1,16,18,20,22,24,26,28,-1,30,32,34,-1,-1,36,-1,38,-1,40,-1,42,-1,-1,44,-1,46,-1,48,-1,-1,50,52,-1,-1,-1,-1,-1,-1,-1,-1,-1,-1,-1,-1,-1,-1],"split_conditions":[5.3E1,5.06605E-2,1.509976E-1,3.6E1,2.2222222E-1,1.4826772E-2,6.1E1,-6.628564E-2,3.7E1,2.6E1,3.9E1,6E1,1.8181819E-1,1.6666667E-1,7.4E1,-1.742391E-2,4.3E1,8.752481E-2,1.8372521E-1,6.1813932E-2,2.1267036E-2,5.7E1,6.311702E-2,6E1,-6.06804E-2,5.4E1,-2.0738322E-2,3.75E-1,6.598889E-2,-5.9752163E-2,6.666667E-2,5.87559E-2,1.25E-1,-6.580944E-2,4.8E1,4.336371E-2,1.3862061E-2,9.999689E-2,1.25E-1,2.8406683E-2,6.1479647E-2,6.255815E-2,-6.660138E-2,-3.1173933E-2,-5.896702E-2,4.56153E-2,-1.9309128E-2,2.8630076E-3,5.2062757E-2,-5.6794774E-2,8.595432E-3,1.1954961E-2,4.116645E-2],"split_indices":[1,3,3,1,2,3,1,0,1,1,1,1,2,2,1,0,1,3,3,0,0,1,0,1,0,1,0,2,0,0,2,0,2,0,1,0,0,3,2,0,0,0,0,0,0,0,0,0,0,0,0,0,0],"split_type":[0,0,0,0,0,0,0,0,0,0,0,0,0,0,0,0,0,0,0,0,0,0,0,0,0,0,0,0,0,0,0,0,0,0,0,0,0,0,0,0,0,0,0,0,0,0,0,0,0,0,0,0,0],"sum_hessian":[8.07494E2,4.1840652E2,3.8908746E2,3.6171918E2,5.668735E1,6.3377472E1,3.2571E2,2.2835378E2,1.333654E2,4.5028473E1,1.165888E1,3.7225636E1,2.6151838E1,1.574003E1,3.0996997E2,1.6479912E1,1.168855E2,1.8605299E1,2.6423174E1,8.161602E0,3.4972782E0,1.7620636E1,1.9605E1,1.8661652E1,7.490186E0,1.1797762E1,3.942268E0,8.574538E1,2.242246E2,6.84177E1,4.8467793E1,4.574424E0,1.4030874E1,1.5928809E1,1.0494365E1,1.1490762E1,6.129875E0,8.237673E0,1.0423978E1,3.688733E0,8.109029E0,8.212637E1,3.6189961E0,3.9231144E1,9.23665E0,5.382863E0,8.648011E0,6.4688063E0,4.0255585E0,5.0933094E0,3.1443636E0,3.2214386E0,7.2025394E0],"tree_param":{"num_deleted":"0","num_feature":"4","num_nodes":"53","size_leaf_vector":"1"}},{"base_weights":[-1.1187625E-2,-4.427805E-1,5.698524E-1,-5.6078076E-1,3.03244E-1,3.0679736E-1,6.05408E-1,-5.8244354E-1,2.6165795E-1,3.9095613E-1,-5.585297E-2,1.9562799E-1,5.7939466E-2,6.1945256E-2,4.9593064E-1,-6.0606927E-1,-3.2674658E-1,5.6113947E-2,-1.410694E-2,1.0986021E-1,4.9734914E-1,3.6400926E-1,-5.016463E-2,-4.2425554E-2,6.427451E-2,-6.206176E-1,-3.6771393E-1,-3.6809447E-1,2.6977593E-3,-8.173845E-2,3.5577852E-2,3.7947422E-1,6.17369E-2,3.6472925E-3,4.655481E-1,3.821097E-2,-4.1420305E-1,-6.4794734E-2,-5.2459843E-2,3.6660198E-2,-7.18481E-2,-2.8872088E-2,-5.6737293E-2,9.658799E-3,-2.3852997E-2,4.618489E-2,1.9046376E-2,5.3094428E-2,2.6931673E-2,-5.4282315E-2,-1.960524E-2],"categories":[],"categories_nodes":[],"categories_segments":[],"categories_sizes":[],"default_left":[0,0,0,0,0,0,0,0,0,0,0,0,0,0,0,0,0,0,0,0,0,0,0,0,0,0,0,0,0,0,0,0,0,0,0,0,0,0,0,0,0,0,0,0,0,0,0,0,0,0,0],"id":9,"left_children":[1,3,5,7,9,11,13,15,17,19,-1,21,-1,-1,23,25,27,-1,-1,29,31,33,35,-1,-1,37,39,41,-1,43,-1,45,-1,-1,47,-1,49,-1,-1,-1,-1,-1,-1,-1,-1,-1,-1,-1,-1,-1,-1],"loss_changes":[1.8423358E2,3.727771E1,2.7429657E0,6.643074E0,4.618901E0,1.0779715E0,1.1534119E-1,1.9481812E0,1.2900283E0,1.5432024E0,0E0,1.2364248E0,0E0,0E0,5.1715317E0,8.955002E-1,4.8116374E-1,0E0,0E0,7.807563E-1,3.100357E-1,5.6797457E-1,2.179622E0,0E0,0E0,4.5773315E-1,5.69697E0,2.9356003E-1,0E0,2.964912E-1,0E0,2.5465822E-1,0E0,0E0,2.8213501E-2,0E0,1.0269046E-1,0E0,0E0,0E0,0E0,0E0,0E0,0E0,0E0,0E0,0E0,0E0,0E0,0E0,0E0],"parents":[2147483647,0,0,1,1,2,2,3,3,4,4,5,5,6,6,7,7,8,8,9,9,11,11,14,14,15,15,16,16,19,19,20,20,21,21,22,22,25,25,26,26,27,27,29,29,31,31,34,34,36,36],"right_children":[2,4,6,8,10,12,14,16,18,20,-1,22,-1,-1,24,26,28,-1,-1,30,32,34,36,-1,-1,38,40,42,-1,44,-1,46,-1,-1,48,-1,50,-1,-1,-1,-1,-1,-1,-1,-1,-1,-1,-1,-1,-1,-1],"split_conditions":[1.44818E-1,6E1,5.5E1,2.5E-1,1.6666667E-1,3.9466947E-1,6.666667E-1,5.3E1,3.8E1,6.4E1,-5.585297E-2,4.6E1,5.7939466E-2,6.1945256E-2,5.9474397E-1,6.832537E-2,1.1131783E-1,5.6113947E-2,-1.410694E-2,6.666667E-2,7.6E1,3.5E1,1.6666667E-1,-4.2425554E-2,6.427451E-2,4E1,2.4E1,1.4826772E-2,2.6977593E-3,6.1E1,3.5577852E-2,7E1,6.17369E-2,3.6472925E-3,2.3441327E-1,3.821097E-2,5.3E1,-6.4794734E-2,-5.2459843E-2,3.6660198E-2,-7.18481E-2,-2.8872088E-2,-5.6737293E-2,9.658799E-3,-2.3852997E-2,4.618489E-2,1.9046376E-2,5.3094428E-2,2.6931673E-2,-5.4282315E-2,-1.960524E-2],"split_indices":[3,0,0,2,2,3,2,0,0,0,0,0,0,0,3,3,3,0,0,2,0,0,2,0,0,0,0,3,0,0,0,0,0,0,3,0,0,0,0,0,0,0,0,0,0,0,0,0,0,0,0],"split_type":[0,0,0,0,0,0,0,0,0,0,0,0,0,0,0,0,0,0,0,0,0,0,0,0,0,0,0,0,0,0,0,0,0,0,0,0,0,0,0,0,0,0,0,0,0,0,0,0,0,0,0],"sum_hessian":[7.326573E2,4.2052896E2,3.121283E2,3.6331152E2,5.721745E1,3.8311604E1,2.738167E2,3.5427194E2,9.039589E0,5.242765E1,4.789799E0,2.8433592E1,9.878014E0,2.3855493E2,3.5261776E1,3.230525E2,3.1219446E1,4.958749E0,4.0808396E0,1.4953175E1,3.7474476E1,1.6588564E1,1.1845028E1,4.5918407E0,3.0669935E1,3.0295728E2,2.0095211E1,2.7915672E1,3.3037736E0,8.780092E0,6.1730824E0,2.1005823E1,1.6468655E1,4.247263E0,1.2341301E1,5.392321E0,6.452707E0,2.313583E2,7.159896E1,6.4814425E0,1.3613768E1,2.1715221E1,6.20045E0,4.287587E0,4.4925046E0,1.3624482E1,7.3813405E0,7.9771323E0,4.364168E0,3.1230712E0,3.3296354E0],"tree_param":{"num_deleted":"0","num_feature":"4","num_nodes":"51","size_leaf_vector":"1"}},{"base_weights":[-3.6840579E-3,-4.838981E-1,5.245388E-1,-5.639405E-1,1.0160278E-1,2.0808062E-1,5.78386E-1,-5.8229476E-1,-1.5123737E-1,1.6332673E-1,-5.132254E-2,4.753525E-1,-1.3469379E-1,2.7845314E-1,5.9053963E-1,-5.886167E-1,1.0737693E-3,-6.783514E-3,-2.2743564E-2,6.0390323E-2,5.2601274E-2,2.2626137E-2,5.911987E-2,-2.6942557E-1,2.925292E-2,5.9753563E-2,-5.4926362E-2,4.7832492E-1,6.050221E-2,-5.945745E-1,-1.3695778E-2,3.8393217E-1,-5.174445E-2,1.0061544E-2,-4.705241E-1,6.1727174E-2,5.1825084E-2,-6.369733E-2,-5.08762E-2,1.0229616E-2,6.199949E-2,-1.5487115E-2,4.1862488E-2,-5.685342E-2,-1.8764911E-2,-1.97628E-2,3.241059E-2],"categories":[],"categories_nodes":[],"categories_segments":[],"categories_sizes":[],"default_left":[0,0,0,0,0,0,0,0,0,0,0,0,0,0,0,0,0,0,0,0,0,0,0,0,0,0,0,0,0,0,0,0,0,0,0,0,0,0,0,0,0,0,0,0,0,0,0],"id":10,"left_children":[1,3,5,7,9,11,13,15,17,19,-1,21,23,25,27,29,-1,-1,-1,31,-1,-1,-1,33,-1,-1,-1,35,-1,37,-1,39,41,-1,43,-1,45,-1,-1,-1,-1,-1,-1,-1,-1,-1,-1],"loss_changes":[1.7208237E2,1.6710419E1,5.384613E0,2.2810364E0,1.7377868E0,4.5107956E0,8.398895E-1,1.1276703E0,7.778868E-2,1.4752225E0,0E0,6.5959454E-1,1.347713E0,3.6617248E0,1.3946533E-1,7.149353E-1,0E0,0E0,0E0,1.2015693E0,0E0,0E0,0E0,1.3332161E0,0E0,0E0,0E0,2.0386004E0,0E0,7.3760986E-1,0E0,5.018244E-1,1.2808921E0,0E0,2.0859265E-1,0E0,7.213618E-1,0E0,0E0,0E0,0E0,0E0,0E0,0E0,0E0,0E0,0E0],"parents":[2147483647,0,0,1,1,2,2,3,3,4,4,5,5,6,6,7,7,8,8,9,9,11,11,12,12,13,13,14,14,15,15,19,19,23,23,27,27,29,29,31,31,32,32,34,34,36,36],"right_children":[2,4,6,8,10,12,14,16,18,20,-1,22,24,26,28,30,-1,-1,-1,32,-1,-1,-1,34,-1,-1,-1,36,-1,38,-1,40,42,-1,44,-1,46,-1,-1,-1,-1,-1,-1,-1,-1,-1,-1],"split_conditions":[5.3E1,8.566578E-2,1.4077635E-1,4.8E1,5E1,1.4826772E-2,6.1E1,1.6666667E-1,5E1,2.2222222E-1,-5.132254E-2,5.9E1,1.3302965E-1,2.2222222E-1,3.2432553E-1,6.740089E-2,1.0737693E-3,-6.783514E-3,-2.2743564E-2,2.5E1,5.2601274E-2,2.2626137E-2,5.911987E-2,4.0866222E-2,2.925292E-2,5.9753563E-2,-5.4926362E-2,2.2222222E-1,6.050221E-2,3.6E1,-1.3695778E-2,2.3E1,4.8E1,1.0061544E-2,1.0290219E-1,6.1727174E-2,7.1E1,-6.369733E-2,-5.08762E-2,1.0229616E-2,6.199949E-2,-1.5487115E-2,4.1862488E-2,-5.685342E-2,-1.8764911E-2,-1.97628E-2,3.241059E-2],"split_indices":[1,3,3,1,1,3,1,2,1,2,0,1,3,2,3,3,0,0,0,1,0,0,0,3,0,0,0,2,0,1,0,1,1,0,3,0,1,0,0,0,0,0,0,0,0,0,0],"split_type":[0,0,0,0,0,0,0,0,0,0,0,0,0,0,0,0,0,0,0,0,0,0,0,0,0,0,0,0,0,0,0,0,0,0,0,0,0,0,0,0,0,0,0,0,0,0,0],"sum_hessian":[6.76397E2,3.543431E2,3.2205386E2,3.1175998E2,4.2583126E1,4.753811E1,2.7451575E2,2.9809198E2,1.3668021E1,3.936549E1,3.2176344E0,2.6493513E1,2.1044596E1,1.1621717E1,2.6289404E2,2.9495505E2,3.1369104E0,7.428003E0,6.240018E0,3.157148E1,7.79401E0,9.347579E0,1.7145935E1,1.6279839E1,4.764758E0,8.588837E0,3.0328805E0,3.3940327E1,2.2895372E2,2.908027E2,4.1523542E0,7.5020394E0,2.406944E1,5.908074E0,1.0371764E1,2.5262812E1,8.677516E0,1.90337E2,1.004657E2,4.0743976E0,3.4276419E0,2.0291378E1,3.7780626E0,6.9528937E0,3.4188707E0,4.671681E0,4.0058355E0],"tree_param":{"num_deleted":"0","num_feature":"4","num_nodes":"47","size_leaf_vector":"1"}}]},"name":"gbtree"},"learner_model_param":{"base_score":"1.1529112E-8","boost_from_average":"1","num_class":"0","num_feature":"4","num_target":"1"},"objective":{"lambdarank_param":{"lambdarank_bias_norm":"1","lambdarank_normalization":"1","lambdarank_num_pair_per_sample":"4294967295","lambdarank_pair_method":"topk","lambdarank_score_normalization":"1","lambdarank_unbiased":"0","ndcg_exp_gain":"1"},"name":"rank:pairwise"}},"version":[3,0,0]}